{"learner":{"attributes":{"scikit_learn":"{\"_estimator_type\": \"classifier\"}"},"feature_names":[],"feature_types":[],"gradient_booster":{"model":{"cats":{"enc":[],"feature_segments":[],"sorted_idx":[]},"gbtree_model_param":{"num_parallel_tree":"1","num_trees":"1800"},"iteration_indptr":[0,12,24,36,48,60,72,84,96,108,120,132,144,156,168,180,192,204,216,228,240,252,264,276,288,300,312,324,336,348,360,372,384,396,408,420,432,444,456,468,480,492,504,516,528,540,552,564,576,588,600,612,624,636,648,660,672,684,696,708,720,732,744,756,768,780,792,804,816,828,840,852,864,876,888,900,912,924,936,948,960,972,984,996,1008,1020,1032,1044,1056,1068,1080,1092,1104,1116,1128,1140,1152,1164,1176,1188,1200,1212,1224,1236,1248,1260,1272,1284,1296,1308,1320,1332,1344,1356,1368,1380,1392,1404,1416,1428,1440,1452,1464,1476,1488,1500,1512,1524,1536,1548,1560,1572,1584,1596,1608,1620,1632,1644,1656,1668,1680,1692,1704,1716,1728,1740,1752,1764,1776,1788,1800],"tree_info":[0,1,2,3,4,5,6,7,8,9,10,11,0,1,2,3,4,5,6,7,8,9,10,11,0,1,2,3,4,5,6,7,8,9,10,11,0,1,2,3,4,5,6,7,8,9,10,11,0,1,2,3,4,5,6,7,8,9,10,11,0,1,2,3,4,5,6,7,8,9,10,11,0,1,2,3,4,5,6,7,8,9,10,11,0,1,2,3,4,5,6,7,8,9,10,11,0,1,2,3,4,5,6,7,8,9,10,11,0,1,2,3,4,5,6,7,8,9,10,11,0,1,2,3,4,5,6,7,8,9,10,11,0,1,2,3,4,5,6,7,8,9,10,11,0,1,2,3,4,5,6,7,8,9,10,11,0,1,2,3,4,5,6,7,8,9,10,11,0,1,2,3,4,5,6,7,8,9,10,11,0,1,2,3,4,5,6,7,8,9,10,11,0,1,2,3,4,5,6,7,8,9,10,11,0,1,2,3,4,5,6,7,8,9,10,11,0,1,2,3,4,5,6,7,8,9,10,11,0,1,2,3,4,5,6,7,8,9,10,11,0,1,2,3,4,5,6,7,8,9,10,11,0,1,2,3,4,5,6,7,8,9,10,11,0,1,2,3,4,5,6,7,8,9,10,11,0,1,2,3,4,5,6,7,8,9,10,11,0,1,2,3,4,5,6,7,8,9,10,11,0,1,2,3,4,5,6,7,8,9,10,11,0,1,2,3,4,5,6,7,8,9,10,11,0,1,2,3,4,5,6,7,8,9,10,11,0,1,2,3,4,5,6,7,8,9,10,11,0,1,2,3,4,5,6,7,8,9,10,11,0,1,2,3,4,5,6,7,8,9,10,11,0,1,2,3,4,5,6,7,8,9,10,11,0,1,2,3,4,5,6,7,8,9,10,11,0,1,2,3,4,5,6,7,8,9,10,11,0,1,2,3,4,5,6,7,8,9,10,11,0,1,2,3,4,5,6,7,8,9,10,11,0,1,2,3,4,5,6,7,8,9,10,11,0,1,2,3,4,5,6,7,8,9,10,11,0,1,2,3,4,5,6,7,8,9,10,11,0,1,2,3,4,5,6,7,8,9,10,11,0,1,2,3,4,5,6,7,8,9,10,11,0,1,2,3,4,5,6,7,8,9,10,11,0,1,2,3,4,5,6,7,8,9,10,11,0,1,2,3,4,5,6,7,8,9,10,11,0,1,2,3,4,5,6,7,8,9,10,11,0,1,2,3,4,5,6,7,8,9,10,11,0,1,2,3,4,5,6,7,8,9,10,11,0,1,2,3,4,5,6,7,8,9,10,11,0,1,2,3,4,5,6,7,8,9,10,11,0,1,2,3,4,5,6,7,8,9,10,11,0,1,2,3,4,5,6,7,8,9,10,11,0,1,2,3,4,5,6,7,8,9,10,11,0,1,2,3,4,5,6,7,8,9,10,11,0,1,2,3,4,5,6,7,8,9,10,11,0,1,2,3,4,5,6,7,8,9,10,11,0,1,2,3,4,5,6,7,8,9,10,11,0,1,2,3,4,5,6,7,8,9,10,11,0,1,2,3,4,5,6,7,8,9,10,11,0,1,2,3,4,5,6,7,8,9,10,11,0,1,2,3,4,5,6,7,8,9,10,11,0,1,2,3,4,5,6,7,8,9,10,11,0,1,2,3,4,5,6,7,8,9,10,11,0,1,2,3,4,5,6,7,8,9,10,11,0,1,2,3,4,5,6,7,8,9,10,11,0,1,2,3,4,5,6,7,8,9,10,11,0,1,2,3,4,5,6,7,8,9,10,11,0,1,2,3,4,5,6,7,8,9,10,11,0,1,2,3,4,5,6,7,8,9,10,11,0,1,2,3,4,5,6,7,8,9,10,11,0,1,2,3,4,5,6,7,8,9,10,11,0,1,2,3,4,5,6,7,8,9,10,11,0,1,2,3,4,5,6,7,8,9,10,11,0,1,2,3,4,5,6,7,8,9,10,11,0,1,2,3,4,5,6,7,8,9,10,11,0,1,2,3,4,5,6,7,8,9,10,11,0,1,2,3,4,5,6,7,8,9,10,11,0,1,2,3,4,5,6,7,8,9,10,11,0,1,2,3,4,5,6,7,8,9,10,11,0,1,2,3,4,5,6,7,8,9,10,11,0,1,2,3,4,5,6,7,8,9,10,11,0,1,2,3,4,5,6,7,8,9,10,11,0,1,2,3,4,5,6,7,8,9,10,11,0,1,2,3,4,5,6,7,8,9,10,11,0,1,2,3,4,5,6,7,8,9,10,11,0,1,2,3,4,5,6,7,8,9,10,11,0,1,2,3,4,5,6,7,8,9,10,11,0,1,2,3,4,5,6,7,8,9,10,11,0,1,2,3,4,5,6,7,8,9,10,11,0,1,2,3,4,5,6,7,8,9,10,11,0,1,2,3,4,5,6,7,8,9,10,11,0,1,2,3,4,5,6,7,8,9,10,11,0,1,2,3,4,5,6,7,8,9,10,11,0,1,2,3,4,5,6,7,8,9,10,11,0,1,2,3,4,5,6,7,8,9,10,11,0,1,2,3,4,5,6,7,8,9,10,11,0,1,2,3,4,5,6,7,8,9,10,11,0,1,2,3,4,5,6,7,8,9,10,11,0,1,2,3,4,5,6,7,8,9,10,11,0,1,2,3,4,5,6,7,8,9,10,11,0,1,2,3,4,5,6,7,8,9,10,11,0,1,2,3,4,5,6,7,8,9,10,11,0,1,2,3,4,5,6,7,8,9,10,11,0,1,2,3,4,5,6,7,8,9,10,11,0,1,2,3,4,5,6,7,8,9,10,11,0,1,2,3,4,5,6,7,8,9,10,11,0,1,2,3,4,5,6,7,8,9,10,11,0,1,2,3,4,5,6,7,8,9,10,11,0,1,2,3,4,5,6,7,8,9,10,11,0,1,2,3,4,5,6,7,8,9,10,11,0,1,2,3,4,5,6,7,8,9,10,11,0,1,2,3,4,5,6,7,8,9,10,11,0,1,2,3,4,5,6,7,8,9,10,11,0,1,2,3,4,5,6,7,8,9,10,11,0,1,2,3,4,5,6,7,8,9,10,11,0,1,2,3,4,5,6,7,8,9,10,11,0,1,2,3,4,5,6,7,8,9,10,11,0,1,2,3,4,5,6,7,8,9,10,11,0,1,2,3,4,5,6,7,8,9,10,11,0,1,2,3,4,5,6,7,8,9,10,11,0,1,2,3,4,5,6,7,8,9,10,11,0,1,2,3,4,5,6,7,8,9,10,11,0,1,2,3,4,5,6,7,8,9,10,11,0,1,2,3,4,5,6,7,8,9,10,11,0,1,2,3,4,5,6,7,8,9,10,11,0,1,2,3,4,5,6,7,8,9,10,11,0,1,2,3,4,5,6,7,8,9,10,11,0,1,2,3,4,5,6,7,8,9,10,11,0,1,2,3,4,5,6,7,8,9,10,11,0,1,2,3,4,5,6,7,8,9,10,11,0,1,2,3,4,5,6,7,8,9,10,11,0,1,2,3,4,5,6,7,8,9,10,11,0,1,2,3,4,5,6,7,8,9,10,11,0,1,2,3,4,5,6,7,8,9,10,11,0,1,2,3,4,5,6,7,8,9,10,11,0,1,2,3,4,5,6,7,8,9,10,11,0,1,2,3,4,5,6,7,8,9,10,11,0,1,2,3,4,5,6,7,8,9,10,11,0,1,2,3,4,5,6,7,8,9,10,11,0,1,2,3,4,5,6,7,8,9,10,11,0,1,2,3,4,5,6,7,8,9,10,11,0,1,2,3,4,5,6,7,8,9,10,11,0,1,2,3,4,5,6,7,8,9,10,11,0,1,2,3,4,5,6,7,8,9,10,11,0,1,2,3,4,5,6,7,8,9,10,11,0,1,2,3,4,5,6,7,8,9,10,11,0,1,2,3,4,5,6,7,8,9,10,11,0,1,2,3,4,5,6,7,8,9,10,11,0,1,2,3,4,5,6,7,8,9,10,11,0,1,2,3,4,5,6,7,8,9,10,11,0,1,2,3,4,5,6,7,8,9,10,11],"trees":[{"base_weights":[1.5602418E-2,3.9957166E-1,-3.1795344E-1,-2.3958738E-1,1.6334456E0,1.1656782E-1,-4.6279296E-1,6.1129887E-2,-2.8434908E-1,2.3754318E0,-1.8530357E-1,8.277672E-1,-4.1778275E-1,-1.23144336E-1,-4.8718023E-1,1.6401336E-2,-2.0067586E-2,6.3835494E-2,1.8030865E-1,2.224282E-2,-2.3789579E-2,3.965777E-3,1.2609246E-1,7.582031E-3,-2.307511E-2,2.079285E-2,-2.186395E-2,-2.4843866E-2,5.4664994E-3],"categories":[],"categories_nodes":[],"categories_segments":[],"categories_sizes":[],"default_left":[0,0,0,0,0,0,0,0,0,0,0,0,0,0,0,0,0,0,0,0,0,0,0,0,0,0,0,0,0],"id":0,"left_children":[1,3,5,7,9,11,13,-1,15,17,19,21,23,25,27,-1,-1,-1,-1,-1,-1,-1,-1,-1,-1,-1,-1,-1,-1],"loss_changes":[3.2660957E1,9.409523E1,8.667868E0,5.422638E0,5.5537926E1,1.357598E1,7.289276E-1,0E0,5.6922264E0,3.4115265E1,2.5343888E0,1.894524E1,6.0884595E-1,1.6210213E0,6.43322E-1,0E0,0E0,0E0,0E0,0E0,0E0,0E0,0E0,0E0,0E0,0E0,0E0,0E0,0E0],"parents":[2147483647,0,0,1,1,2,2,3,3,4,4,5,5,6,6,8,8,9,9,10,10,11,11,12,12,13,13,14,14],"right_children":[2,4,6,8,10,12,14,-1,16,18,20,22,24,26,28,-1,-1,-1,-1,-1,-1,-1,-1,-1,-1,-1,-1,-1,-1],"split_conditions":[-7.524152E1,-1.00382095E2,8.578171E-1,9.0014964E-2,-3.2029474E-1,-3.1491524E1,5.6448483E-1,6.1129887E-2,4.8872995E-1,1.0253278E-1,4.5169622E-1,1.0322147E2,9.282603E1,-8.804401E1,9.345032E1,1.6401336E-2,-2.0067586E-2,6.3835494E-2,1.8030865E-1,2.224282E-2,-2.3789579E-2,3.965777E-3,1.2609246E-1,7.582031E-3,-2.307511E-2,2.079285E-2,-2.186395E-2,-2.4843866E-2,5.4664994E-3],"split_indices":[209,209,189,88,134,209,111,0,183,201,79,197,161,59,155,0,0,0,0,0,0,0,0,0,0,0,0,0,0],"split_type":[0,0,0,0,0,0,0,0,0,0,0,0,0,0,0,0,0,0,0,0,0,0,0,0,0,0,0,0,0],"sum_hessian":[2.5295825E2,1.1764005E2,1.3531819E2,7.797368E1,3.966637E1,3.370558E1,1.0161261E2,1.468133E0,7.650555E1,2.7994493E1,1.1671875E1,1.4304669E1,1.9400913E1,7.4871373E0,9.412547E1,1.184615E1,6.46594E1,1.5909857E1,1.2084637E1,3.4064827E0,8.265392E0,1.0688361E1,3.616309E0,1.0442516E0,1.835666E1,2.5204036E0,4.966734E0,9.294913E1,1.1763463E0],"tree_param":{"num_deleted":"0","num_feature":"210","num_nodes":"29","size_leaf_vector":"1"}},{"base_weights":[-3.966114E-3,-2.8336155E-1,4.7437814E-1,4.220379E-2,-4.7871724E-1,8.6917765E-2,1.4345158E0,-9.134852E-2,1.6118543E0,5.2127488E-2,-5.084086E-1,-2.2473277E-1,8.7374353E-1,6.8224365E-1,2.5927243E0,-2.3170285E-2,1.9191392E-2,1.370914E-1,-1.5156879E-2,-2.6422461E-2,1.915E-2,2.547715E-2,-1.7155034E-2,1.178558E-1,1.1728675E-2,1.2996487E-2,1.2934299E-1,1.6198844E-1,-0E0],"categories":[],"categories_nodes":[],"categories_segments":[],"categories_sizes":[],"default_left":[0,0,0,0,0,0,0,0,0,0,0,0,0,0,0,0,0,0,0,0,0,0,0,0,0,0,0,0,0],"id":1,"left_children":[1,3,5,7,9,11,13,15,17,-1,19,21,23,25,27,-1,-1,-1,-1,-1,-1,-1,-1,-1,-1,-1,-1,-1,-1],"loss_changes":[3.358042E1,1.0165557E1,3.4160477E1,1.2938143E1,4.9726143E0,1.6713387E1,2.097258E1,1.0165989E1,1.1548078E1,0E0,1.974247E0,4.3963265E0,1.75158E1,1.3087398E1,1.7056938E1,0E0,0E0,0E0,0E0,0E0,0E0,0E0,0E0,0E0,0E0,0E0,0E0,0E0,0E0],"parents":[2147483647,0,0,1,1,2,2,3,3,4,4,5,5,6,6,7,7,8,8,10,10,11,11,12,12,13,13,14,14],"right_children":[2,4,6,8,10,12,14,16,18,-1,20,22,24,26,28,-1,-1,-1,-1,-1,-1,-1,-1,-1,-1,-1,-1,-1,-1],"split_conditions":[1.9788234E-1,4.3238848E-1,9.4389135E-1,9.943889E-1,1.2846889E-1,9.986085E-1,4.1768456E-1,4.873317E-1,7.992881E1,5.2127488E-2,1.2653418E2,-8.414683E1,2.9251173E-1,1.1358687E2,9.190876E-1,-2.3170285E-2,1.9191392E-2,1.370914E-1,-1.5156879E-2,-2.6422461E-2,1.915E-2,2.547715E-2,-1.7155034E-2,1.178558E-1,1.1728675E-2,1.2996487E-2,1.2934299E-1,1.6198844E-1,-0E0],"split_indices":[202,109,105,99,46,201,205,118,191,0,197,71,172,161,175,0,0,0,0,0,0,0,0,0,0,0,0,0,0],"split_type":[0,0,0,0,0,0,0,0,0,0,0,0,0,0,0,0,0,0,0,0,0,0,0,0,0,0,0,0,0],"sum_hessian":[2.4939882E2,1.5782922E2,9.156959E1,5.929111E1,9.853812E1,6.609275E1,2.5476833E1,5.545119E1,3.8399203E0,1.1688726E0,9.736925E1,4.7762135E1,1.8330618E1,1.6460747E1,9.016088E0,3.123208E1,2.421911E1,2.1762414E0,1.6636789E0,9.573626E1,1.6329821E0,6.0544987E0,4.1707638E1,4.6634803E0,1.3667137E1,1.4446481E1,2.0142658E0,7.0398693E0,1.9762185E0],"tree_param":{"num_deleted":"0","num_feature":"210","num_nodes":"29","size_leaf_vector":"1"}},{"base_weights":[4.3326784E-2,-6.0509972E-2,8.278046E-1,-3.0556214E-1,1.4866075E-1,-2.1143337E-1,1.6596702E0,7.928534E-2,-3.4236288E-1,8.5037297E-1,-1.0955636E-1,2.9713777E-1,-2.3869926E-2,-1.807515E-2,2.063915E0,-1.8900035E-2,4.1064717E-2,7.985116E-2,1.2563727E-3,3.9340552E-2,-1.3136393E-2,-1.9447394E-2,7.890897E-2,1.5645656E-1,2.6160503E-2],"categories":[],"categories_nodes":[],"categories_segments":[],"categories_sizes":[],"default_left":[0,0,0,0,0,0,0,0,0,0,0,0,0,0,0,0,0,0,0,0,0,0,0,0,0],"id":2,"left_children":[1,3,5,7,9,11,13,-1,15,17,19,21,-1,-1,23,-1,-1,-1,-1,-1,-1,-1,-1,-1,-1],"loss_changes":[2.0110613E1,1.1208134E1,2.5443195E1,7.4267855E0,2.1507757E1,2.00799E0,1.4147884E1,0E0,4.398426E0,1.9453382E1,1.2082372E1,5.2846003E0,0E0,0E0,2.045795E1,0E0,0E0,0E0,0E0,0E0,0E0,0E0,0E0,0E0,0E0],"parents":[2147483647,0,0,1,1,2,2,3,3,4,4,5,5,6,6,8,8,9,9,10,10,11,11,14,14],"right_children":[2,4,6,8,10,12,14,-1,16,18,20,22,-1,-1,24,-1,-1,-1,-1,-1,-1,-1,-1,-1,-1],"split_conditions":[9.988912E-1,-7.558707E-2,4.090628E-1,4.5786488E-1,-7.25848E-2,4.444507E-1,1.052143E-1,7.928534E-2,4.8406038E-1,4.9969167E-1,-6.923881E-1,5.071098E-1,-2.3869926E-2,-1.807515E-2,1.6121572E-1,-1.8900035E-2,4.1064717E-2,7.985116E-2,1.2563727E-3,3.9340552E-2,-1.3136393E-2,-1.9447394E-2,7.890897E-2,1.5645656E-1,2.6160503E-2],"split_indices":[207,44,205,139,152,180,202,0,31,0,110,174,0,0,202,0,0,0,0,0,0,0,0,0,0],"split_type":[0,0,0,0,0,0,0,0,0,0,0,0,0,0,0,0,0,0,0,0,0,0,0,0,0],"sum_hessian":[2.4432742E2,2.1646996E2,2.7857471E1,9.969287E1,1.16777084E2,1.266317E1,1.5194302E1,1.0476104E0,9.864526E1,3.0899862E1,8.587722E1,4.179003E0,8.484167E0,2.5088286E0,1.2685473E1,9.645244E1,2.1928234E0,1.566783E1,1.5232031E1,1.1834056E1,7.404317E1,3.1241345E0,1.0548681E0,6.852143E0,5.83333E0],"tree_param":{"num_deleted":"0","num_feature":"210","num_nodes":"25","size_leaf_vector":"1"}},{"base_weights":[4.073099E-3,2.4068482E0,-8.379554E-2,3.0832448E0,-1.5370919E-2,-2.1005549E-1,6.184208E-1,8.682037E-3,3.6137419E0,3.8118035E-1,-3.8068992E-1,2.187765E0,9.324291E-2,3.1889927E-2,2.137054E-1,-1.2561199E-3,9.786319E-2,5.113974E-2,-2.001792E-2,1.831166E-1,1.953548E-2,-1.6358187E-2,3.8198568E-2],"categories":[],"categories_nodes":[],"categories_segments":[],"categories_sizes":[],"default_left":[0,0,0,0,0,0,0,0,0,0,0,0,0,0,0,0,0,0,0,0,0,0,0],"id":3,"left_children":[1,3,5,7,-1,9,11,-1,13,15,17,19,21,-1,-1,-1,-1,-1,-1,-1,-1,-1,-1],"loss_changes":[5.4942917E1,1.8083237E1,2.2254215E1,1.0524963E1,0E0,2.1609825E1,3.107845E1,0E0,9.043831E0,3.0993303E1,4.922491E0,2.3321938E1,8.679191E0,0E0,0E0,0E0,0E0,0E0,0E0,0E0,0E0,0E0,0E0],"parents":[2147483647,0,0,1,1,2,2,3,3,5,5,6,6,8,8,9,9,10,10,11,11,12,12],"right_children":[2,4,6,8,-1,10,12,-1,14,16,18,20,22,-1,-1,-1,-1,-1,-1,-1,-1,-1,-1],"split_conditions":[3.0614668E-1,2.6385558E-1,5.527149E-1,8.548821E-1,-1.5370919E-2,4.5351186E-1,9.996991E-1,8.682037E-3,4.4537702E-1,5.8503526E-1,4.2406356E-1,5.4454E-1,-1.08762E2,3.1889927E-2,2.137054E-1,-1.2561199E-3,9.786319E-2,5.113974E-2,-2.001792E-2,1.831166E-1,1.953548E-2,-1.6358187E-2,3.8198568E-2],"split_indices":[79,103,114,99,0,108,69,0,190,174,12,66,89,0,0,0,0,0,0,0,0,0,0],"split_type":[0,0,0,0,0,0,0,0,0,0,0,0,0,0,0,0,0,0,0,0,0,0,0],"sum_hessian":[2.5717883E2,8.182211E0,2.4899663E2,6.4706297E0,1.7115816E0,2.1176425E2,3.7232376E1,1.2315884E0,5.2390413E0,4.702077E1,1.6474347E2,8.494078E0,2.87383E1,1.3359288E0,3.9031126E0,3.811549E1,8.905281E0,1.5016845E0,1.6324179E2,4.0649714E0,4.4291067E0,1.7888857E1,1.08494425E1],"tree_param":{"num_deleted":"0","num_feature":"210","num_nodes":"23","size_leaf_vector":"1"}},{"base_weights":[-4.790125E-3,-3.723556E-1,2.0624707E0,-4.3111145E-1,1.1199051E0,3.457879E0,1.0336623E0,1.0605005E0,-4.802541E-1,2.351553E0,-2.1651125E-1,4.18775E-1,3.9814205E0,2.1912858E0,4.494771E-1,-1.9272404E-2,1.1623746E-1,-2.5375143E-2,1.02449795E-2,-1.1840769E-2,1.6416208E-1,-1.8988024E-2,7.978852E-3,-1.4109922E-2,5.5711545E-2,2.2391137E-2,2.173945E-1,1.5094699E-2,1.6531591E-1,7.830342E-2,-1.1644608E-2],"categories":[],"categories_nodes":[],"categories_segments":[],"categories_sizes":[],"default_left":[0,0,0,0,0,0,0,0,0,0,0,0,0,0,0,0,0,0,0,0,0,0,0,0,0,0,0,0,0,0,0],"id":4,"left_children":[1,3,5,7,9,11,13,15,17,19,21,23,25,27,29,-1,-1,-1,-1,-1,-1,-1,-1,-1,-1,-1,-1,-1,-1,-1,-1],"loss_changes":[1.9275403E2,1.9317223E1,5.0942688E1,1.5713879E1,1.4517296E1,2.300206E1,1.4647654E1,1.3681314E1,3.911621E0,1.1896954E1,3.832252E-1,2.0866692E0,1.4817627E1,1.4585583E1,1.3403662E1,0E0,0E0,0E0,0E0,0E0,0E0,0E0,0E0,0E0,0E0,0E0,0E0,0E0,0E0,0E0,0E0],"parents":[2147483647,0,0,1,1,2,2,3,3,4,4,5,5,6,6,7,7,8,8,9,9,10,10,11,11,12,12,13,13,14,14],"right_children":[2,4,6,8,10,12,14,16,18,20,22,24,26,28,30,-1,-1,-1,-1,-1,-1,-1,-1,-1,-1,-1,-1,-1,-1,-1,-1],"split_conditions":[7.3369837E-1,-2.8505703E1,4.138811E-1,-1.3541003E2,5.3801703E-1,9.304502E-1,4.339408E-1,8.309559E-1,-5.2306168E1,9.0110606E-1,5.202264E-1,7.613445E1,2.7380256E-2,-7.19049E1,-2.0334521E-1,-1.9272404E-2,1.1623746E-1,-2.5375143E-2,1.02449795E-2,-1.1840769E-2,1.6416208E-1,-1.8988024E-2,7.978852E-3,-1.4109922E-2,5.5711545E-2,2.2391137E-2,2.173945E-1,1.5094699E-2,1.6531591E-1,7.830342E-2,-1.1644608E-2],"split_indices":[205,119,196,137,186,111,180,87,119,81,96,155,148,95,80,0,0,0,0,0,0,0,0,0,0,0,0,0,0,0,0],"split_type":[0,0,0,0,0,0,0,0,0,0,0,0,0,0,0,0,0,0,0,0,0,0,0,0,0,0,0,0,0,0,0],"sum_hessian":[2.5188428E2,2.1459659E2,3.7287697E1,2.0721585E2,7.3807416E0,1.4781197E1,2.25065E1,5.887882E0,2.0132796E2,3.4845734E0,3.8961685E0,2.4647093E0,1.2316487E1,6.568382E0,1.5938119E1,3.03393E0,2.8539524E0,1.9401709E2,7.31087E0,1.0912921E0,2.393281E0,2.8954618E0,1.0007067E0,1.4518129E0,1.0128964E0,1.3917472E0,1.092474E1,2.9426222E0,3.6257596E0,5.609897E0,1.0328221E1],"tree_param":{"num_deleted":"0","num_feature":"210","num_nodes":"31","size_leaf_vector":"1"}},{"base_weights":[-1.7599745E-2,5.812966E-1,-4.622303E-1,1.1993093E0,-1.3212417E-1,-4.8711047E-1,4.0300906E-1,7.1442443E-1,2.6532254E0,1.329717E0,-3.6070094E-1,-5.124053E-1,-0E0,7.350684E-2,-1.784012E-2,9.42302E-2,2.2204682E-2,1.7875054E-1,2.4269862E-2,-1.5961528E-2,9.924697E-2,-2.3320181E-2,2.2698864E-2,-2.6077753E-2,4.748007E-3,7.9309694E-2,-2.2759713E-2],"categories":[],"categories_nodes":[],"categories_segments":[],"categories_sizes":[],"default_left":[0,0,0,0,0,0,0,0,0,0,0,0,0,0,0,0,0,0,0,0,0,0,0,0,0,0,0],"id":5,"left_children":[1,3,5,7,9,11,13,15,17,19,21,23,25,-1,-1,-1,-1,-1,-1,-1,-1,-1,-1,-1,-1,-1,-1],"loss_changes":[6.865375E1,4.8671257E1,3.3921623E0,3.936319E1,1.7686745E1,1.7663765E0,4.344183E0,1.3376001E1,2.6506104E1,8.532536E0,4.142309E0,8.552246E-1,6.6017137E0,0E0,0E0,0E0,0E0,0E0,0E0,0E0,0E0,0E0,0E0,0E0,0E0,0E0,0E0],"parents":[2147483647,0,0,1,1,2,2,3,3,4,4,5,5,6,6,7,7,8,8,9,9,10,10,11,11,12,12],"right_children":[2,4,6,8,10,12,14,16,18,20,22,24,26,-1,-1,-1,-1,-1,-1,-1,-1,-1,-1,-1,-1,-1,-1],"split_conditions":[4.4487518E-1,-4.4195035E-1,-4.413733E-2,4.5816308E-1,2.3333764E-1,4.0337017E-1,-4.4485766E-2,3.135841E-1,9.8877573E-1,9.910822E-1,5.449797E-1,1.7986145E2,4.9486968E-1,7.350684E-2,-1.784012E-2,9.42302E-2,2.2204682E-2,1.7875054E-1,2.4269862E-2,-1.5961528E-2,9.924697E-2,-2.3320181E-2,2.2698864E-2,-2.6077753E-2,4.748007E-3,7.9309694E-2,-2.2759713E-2],"split_indices":[205,134,56,199,4,82,158,97,201,207,114,149,138,0,0,0,0,0,0,0,0,0,0,0,0,0,0],"split_type":[0,0,0,0,0,0,0,0,0,0,0,0,0,0,0,0,0,0,0,0,0,0,0,0,0,0,0],"sum_hessian":[2.558537E2,1.08788475E2,1.4706522E2,5.80022E1,5.078627E1,1.4349168E2,3.573543E0,4.46661E1,1.33361025E1,6.156715E0,4.462956E1,1.3630566E2,7.18601E0,1.152142E0,2.421401E0,7.1921387E0,3.747396E1,8.869457E0,4.4666443E0,1.8531661E0,4.303549E0,3.9991055E1,4.638504E0,1.3458412E2,1.721543E0,1.0349691E0,6.1510406E0],"tree_param":{"num_deleted":"0","num_feature":"210","num_nodes":"27","size_leaf_vector":"1"}},{"base_weights":[-6.865122E-3,-1.6022855E-1,8.3930165E-1,7.961034E-1,-3.3695891E-1,1.10841155E-1,2.0107715E0,-1.8589571E-2,1.5761001E0,9.3645394E-1,-3.5814118E-1,-1.2862323E-1,1.4142373E0,2.834605E0,-2.0250533E-2,-2.417531E-2,2.8936556E-2,1.04093514E-1,-1.9811315E-2,8.5375056E-2,-1.1805177E-2,5.6338822E-3,-2.0250585E-2,6.268296E-2,-1.7565189E-2,1.2494701E-1,-1.4025003E-2,1.8138252E-1,-1.939483E-3],"categories":[],"categories_nodes":[],"categories_segments":[],"categories_sizes":[],"default_left":[0,0,0,0,0,0,0,0,0,0,0,0,0,0,0,0,0,0,0,0,0,0,0,0,0,0,0,0,0],"id":6,"left_children":[1,3,5,7,9,11,13,15,17,19,21,23,25,27,-1,-1,-1,-1,-1,-1,-1,-1,-1,-1,-1,-1,-1,-1,-1],"loss_changes":[3.2804058E1,3.6476208E1,3.2648052E1,2.1578693E1,5.1823826E0,8.117923E0,3.0752625E1,5.1003084E0,1.8224895E1,3.4204621E0,4.039572E0,7.1169834E0,8.332263E0,2.5924019E1,0E0,0E0,0E0,0E0,0E0,0E0,0E0,0E0,0E0,0E0,0E0,0E0,0E0,0E0,0E0],"parents":[2147483647,0,0,1,1,2,2,3,3,4,4,5,5,6,6,7,7,8,8,9,9,10,10,11,11,12,12,13,13],"right_children":[2,4,6,8,10,12,14,16,18,20,22,24,26,28,-1,-1,-1,-1,-1,-1,-1,-1,-1,-1,-1,-1,-1,-1,-1],"split_conditions":[5.383623E-1,4.5544207E-1,9.755712E-1,9.5614827E-1,9.495997E-2,8.8715714E-1,-6.652152E1,4.064801E-1,9.4790256E-1,2.5955802E-1,2.8109938E-1,-9.800943E1,5.4482394E-1,8.5172665E-1,-2.0250533E-2,-2.417531E-2,2.8936556E-2,1.04093514E-1,-1.9811315E-2,8.5375056E-2,-1.1805177E-2,5.6338822E-3,-2.0250585E-2,6.268296E-2,-1.7565189E-2,1.2494701E-1,-1.4025003E-2,1.8138252E-1,-1.939483E-3],"split_indices":[96,90,159,189,204,204,203,67,123,46,73,95,208,81,0,0,0,0,0,0,0,0,0,0,0,0,0,0,0],"split_type":[0,0,0,0,0,0,0,0,0,0,0,0,0,0,0,0,0,0,0,0,0,0,0,0,0,0,0,0,0],"sum_hessian":[2.5127113E2,2.1350352E2,3.7767605E1,3.2666504E1,1.8083702E2,2.4014523E1,1.3753083E1,1.6392637E1,1.6273865E1,2.174631E0,1.786624E2,2.0983887E1,3.030637E0,1.0157264E1,3.5958197E0,9.419248E0,6.9733906E0,1.294858E1,3.3252857E0,1.0881516E0,1.0864797E0,1.585543E1,1.6280696E2,2.206733E0,1.8777153E1,1.5945407E0,1.4360962E0,7.781819E0,2.3754444E0],"tree_param":{"num_deleted":"0","num_feature":"210","num_nodes":"29","size_leaf_vector":"1"}},{"base_weights":[-8.958227E-3,1.094702E0,-1.2415287E-1,1.7593205E0,-2.3262603E-2,-1.971061E-1,5.2075976E-1,-1.07003145E-1,2.323023E0,-2.2244929E-1,1.466895E0,8.692648E-1,-2.739514E-1,-1.9089153E-2,2.1835707E-2,1.493007E-1,1.2555539E-2,-1.9747661E-2,-1.4194826E-3,9.2293805E-4,1.0972428E-1,6.707762E-2,-9.390087E-3,1.4256767E-2,-2.2398418E-2],"categories":[],"categories_nodes":[],"categories_segments":[],"categories_sizes":[],"default_left":[0,0,0,0,0,0,0,0,0,0,0,0,0,0,0,0,0,0,0,0,0,0,0,0,0],"id":7,"left_children":[1,3,5,7,-1,9,11,13,15,17,19,21,23,-1,-1,-1,-1,-1,-1,-1,-1,-1,-1,-1,-1],"loss_changes":[3.288954E1,2.6287172E1,1.1124324E1,1.8768158E1,0E0,9.139524E0,6.9480853E0,9.0069884E-1,1.7392845E1,6.9659185E0,3.165309E0,8.863986E0,9.216482E-1,0E0,0E0,0E0,0E0,0E0,0E0,0E0,0E0,0E0,0E0,0E0,0E0],"parents":[2147483647,0,0,1,1,2,2,3,3,5,5,6,6,7,7,8,8,9,9,10,10,11,11,12,12],"right_children":[2,4,6,8,-1,10,12,14,16,18,20,22,24,-1,-1,-1,-1,-1,-1,-1,-1,-1,-1,-1,-1],"split_conditions":[-1.3845728E2,3.220442E-1,9.986726E-1,4.6458864E-1,-2.3262603E-2,9.979249E-1,2.394441E-1,2.8317913E-1,3.0978933E-1,-6.5906145E-2,9.8177904E-1,-1.7365625E1,3.976912E-1,-1.9089153E-2,2.1835707E-2,1.493007E-1,1.2555539E-2,-1.9747661E-2,-1.4194826E-3,9.2293805E-4,1.0972428E-1,6.707762E-2,-9.390087E-3,1.4256767E-2,-2.2398418E-2],"split_indices":[209,170,207,108,0,153,202,52,52,44,81,209,192,0,0,0,0,0,0,0,0,0,0,0,0],"split_type":[0,0,0,0,0,0,0,0,0,0,0,0,0,0,0,0,0,0,0,0,0,0,0,0,0],"sum_hessian":[2.5739066E2,2.3440458E1,2.3395018E2,1.6392664E1,7.047794E0,2.1093806E2,2.301212E1,3.9494586E0,1.2443206E1,2.0868613E2,2.2519338E0,1.6019222E1,6.992897E0,2.9435937E0,1.0058649E0,9.055944E0,3.3872619E0,1.0965809E2,9.902804E1,1.1417761E0,1.1101577E0,1.0951615E1,5.067608E0,1.3719258E0,5.620971E0],"tree_param":{"num_deleted":"0","num_feature":"210","num_nodes":"25","size_leaf_vector":"1"}},{"base_weights":[-1.1034317E-4,-2.1762198E-1,1.1249037E0,8.20732E-1,-3.0642694E-1,1.6622902E0,-1.8590249E-1,-1.0142323E-1,1.981747E0,4.6082094E-1,-4.3125317E-1,-4.2982638E-2,2.8680673E0,-2.4393117E-2,5.900159E-2,-1.8348033E-2,5.030529E-2,1.4307573E-1,-2.163943E-3,-1.5268129E-2,6.32096E-2,-2.2605054E-2,1.3749629E-2,7.9334185E-2,-2.4355056E-2,2.3696663E-2,1.8081962E-1],"categories":[],"categories_nodes":[],"categories_segments":[],"categories_sizes":[],"default_left":[0,0,0,0,0,0,0,0,0,0,0,0,0,0,0,0,0,0,0,0,0,0,0,0,0,0,0],"id":8,"left_children":[1,3,5,7,9,11,13,15,17,19,21,23,25,-1,-1,-1,-1,-1,-1,-1,-1,-1,-1,-1,-1,-1,-1],"loss_changes":[6.1848568E1,1.976577E1,2.929176E1,1.84832E1,1.899438E1,6.042032E1,5.7643757E0,3.3410108E0,1.3906218E1,1.7616371E1,2.6369247E0,1.0101179E1,2.859726E1,0E0,0E0,0E0,0E0,0E0,0E0,0E0,0E0,0E0,0E0,0E0,0E0,0E0,0E0],"parents":[2147483647,0,0,1,1,2,2,3,3,4,4,5,5,6,6,7,7,8,8,9,9,10,10,11,11,12,12],"right_children":[2,4,6,8,10,12,14,16,18,20,22,24,26,-1,-1,-1,-1,-1,-1,-1,-1,-1,-1,-1,-1,-1,-1],"split_conditions":[2.804832E-1,-8.473665E1,-8.676122E1,-8.1479294E1,6.1696595E-1,-9.451229E1,-9.279473E1,5.3478324E-1,5.0172806E-1,-1.0725866E2,5.49453E-1,-8.605923E1,3.5438247E-2,-2.4393117E-2,5.900159E-2,-1.8348033E-2,5.030529E-2,1.4307573E-1,-2.163943E-3,-1.5268129E-2,6.32096E-2,-2.2605054E-2,1.3749629E-2,7.9334185E-2,-2.4355056E-2,2.3696663E-2,1.8081962E-1],"split_indices":[202,83,119,71,153,113,89,109,205,89,208,83,142,0,0,0,0,0,0,0,0,0,0,0,0,0,0],"split_type":[0,0,0,0,0,0,0,0,0,0,0,0,0,0,0,0,0,0,0,0,0,0,0,0,0,0,0],"sum_hessian":[2.511192E2,2.1118407E2,3.9935143E1,1.5900392E1,1.9528368E2,2.8187403E1,1.1747743E1,9.322419E0,6.577973E0,2.6836927E1,1.6844675E2,1.2040507E1,1.6146894E1,1.0207312E1,1.5404304E0,8.131739E0,1.19068E0,4.332176E0,2.2457967E0,1.3989968E1,1.2846958E1,1.6410396E2,4.342791E0,1.9793986E0,1.006111E1,4.2658896E0,1.1881004E1],"tree_param":{"num_deleted":"0","num_feature":"210","num_nodes":"27","size_leaf_vector":"1"}},{"base_weights":[2.0124063E-2,-3.347756E-1,1.960326E0,-3.9844388E-1,1.7265697E0,-1.605746E-1,2.3872843E0,-4.6504346E-1,1.334568E0,2.6455548E0,-1.5948957E-2,3.571838E-2,-2.21103E-2,2.857294E0,1.6987145E-1,2.674037E-2,-2.6514143E-2,1.5515786E-1,5.519252E-3,1.644763E-1,1.0105318E-2,1.6553654E-1,3.2936778E-2,8.6778715E-2,-2.151499E-2],"categories":[],"categories_nodes":[],"categories_segments":[],"categories_sizes":[],"default_left":[0,0,0,0,0,0,0,0,0,0,0,0,0,0,0,0,0,0,0,0,0,0,0,0,0],"id":9,"left_children":[1,3,5,7,9,11,13,15,17,19,-1,-1,-1,21,23,-1,-1,-1,-1,-1,-1,-1,-1,-1,-1],"loss_changes":[1.7097777E2,2.8078587E1,3.5380386E1,2.4112518E1,1.3152149E1,2.0956032E0,3.2634445E1,1.316782E1,1.6144028E1,6.1828995E0,0E0,0E0,0E0,2.3700623E1,7.1817718E0,0E0,0E0,0E0,0E0,0E0,0E0,0E0,0E0,0E0,0E0],"parents":[2147483647,0,0,1,1,2,2,3,3,4,4,5,5,6,6,7,7,8,8,9,9,13,13,14,14],"right_children":[2,4,6,8,10,12,14,16,18,20,-1,-1,-1,22,24,-1,-1,-1,-1,-1,-1,-1,-1,-1,-1],"split_conditions":[7.3013675E-1,-2.5475946E1,4.4773236E-1,-4.6762547E1,2.0530376E-1,9.9995923E-1,5.5315745E-1,2.1366094E-1,-8.745418E1,-1.3015681E2,-1.5948957E-2,3.571838E-2,-2.21103E-2,-1.7435816E-1,3.980199E-1,2.674037E-2,-2.6514143E-2,1.5515786E-1,5.519252E-3,1.644763E-1,1.0105318E-2,1.6553654E-1,3.2936778E-2,8.6778715E-2,-2.151499E-2],"split_indices":[205,131,120,113,188,69,114,130,23,89,0,0,0,26,85,0,0,0,0,0,0,0,0,0,0],"split_type":[0,0,0,0,0,0,0,0,0,0,0,0,0,0,0,0,0,0,0,0,0,0,0,0,0],"sum_hessian":[2.461168E2,2.0871483E2,3.740198E1,2.0329105E2,5.4237833E0,6.3329525E0,3.1069029E1,1.9652785E2,6.7632003E0,3.5737853E0,1.8499981E0,1.0814893E0,5.2514634E0,2.5359978E1,5.7090507E0,1.1503047E1,1.850248E2,2.1052122E0,4.657988E0,2.5219386E0,1.0518467E0,2.0566864E1,4.793114E0,1.1039447E0,4.605106E0],"tree_param":{"num_deleted":"0","num_feature":"210","num_nodes":"25","size_leaf_vector":"1"}},{"base_weights":[3.6659285E-2,2.7851388E-1,-5.0070816E-1,5.733188E-1,-5.9807E-2,-4.840867E-2,-2.6828915E-2,8.9318764E-1,-3.4883402E-2,2.888204E-1,-3.7698016E-1,-2.1100711E-2,3.0758455E-2,-3.5816792E-3,6.2562525E-2,8.027481E-2,-1.0692735E-2,-1.5074432E-2,3.8380355E-2,4.2858552E-2,-2.1976814E-2],"categories":[],"categories_nodes":[],"categories_segments":[],"categories_sizes":[],"default_left":[0,0,0,0,0,0,0,0,0,0,0,0,0,0,0,0,0,0,0,0,0],"id":10,"left_children":[1,3,5,7,9,11,-1,13,15,17,19,-1,-1,-1,-1,-1,-1,-1,-1,-1,-1],"loss_changes":[3.302248E1,1.7577108E1,1.1941872E0,1.8397556E1,9.229896E0,1.9992821E0,0E0,2.153149E1,9.963073E0,1.1490917E1,3.7114353E0,0E0,0E0,0E0,0E0,0E0,0E0,0E0,0E0,0E0,0E0],"parents":[2147483647,0,0,1,1,2,2,3,3,4,4,5,5,7,7,8,8,9,9,10,10],"right_children":[2,4,6,8,10,12,-1,14,16,18,20,-1,-1,-1,-1,-1,-1,-1,-1,-1,-1],"split_conditions":[-3.1491524E1,7.933778E-1,4.741541E-1,-8.509907E1,2.6779315E-1,-1.3146028E-2,-2.6828915E-2,3.6069232E-1,-1.1149801E2,7.533856E-1,4.2860082E-1,-2.1100711E-2,3.0758455E-2,-3.5816792E-3,6.2562525E-2,8.027481E-2,-1.0692735E-2,-1.5074432E-2,3.8380355E-2,4.2858552E-2,-2.1976814E-2],"split_indices":[209,129,162,119,88,74,0,100,203,201,0,0,0,0,0,0,0,0,0,0,0],"split_type":[0,0,0,0,0,0,0,0,0,0,0,0,0,0,0,0,0,0,0,0,0],"sum_hessian":[2.5218584E2,1.7437303E2,7.7812805E1,9.29658E1,8.1407234E1,6.0950847E0,7.171773E1,6.0724895E1,3.2240906E1,3.8673058E1,4.2734177E1,4.2288823E0,1.8662022E0,1.6577236E1,4.414766E1,2.3325195E0,2.9908384E1,1.7391748E1,2.1281307E1,1.3716823E0,4.1362495E1],"tree_param":{"num_deleted":"0","num_feature":"210","num_nodes":"21","size_leaf_vector":"1"}},{"base_weights":[-4.5118105E-2,-2.854876E-1,4.3031862E-1,-4.1548768E-1,3.960592E-1,-0E0,1.1441078E0,-4.7915998E-1,1.0830324E0,1.3101314E0,-2.7911526E-1,5.539246E-1,-3.133858E-1,1.9733413E0,2.6677683E-1,-2.4964904E-2,4.7672503E-2,-8.167482E-3,1.2639472E-1,-1.43691795E-2,1.2919526E-1,4.4997808E-2,-2.2087393E-2,-7.1512507E-3,8.420604E-2,3.8543697E-2,-2.059648E-2,4.2627226E-3,1.4848779E-1,1.0867049E-1,-1.7879002E-2],"categories":[],"categories_nodes":[],"categories_segments":[],"categories_sizes":[],"default_left":[0,0,0,0,0,0,0,0,0,0,0,0,0,0,0,0,0,0,0,0,0,0,0,0,0,0,0,0,0,0,0],"id":11,"left_children":[1,3,5,7,9,11,13,15,17,19,21,23,25,27,29,-1,-1,-1,-1,-1,-1,-1,-1,-1,-1,-1,-1,-1,-1,-1,-1],"loss_changes":[2.9084335E1,1.5153301E1,2.6125957E1,1.4070797E1,1.7431004E1,9.63267E0,2.2559292E1,4.400612E0,1.1557995E1,2.5217735E1,3.5290055E0,1.6236E1,4.0481405E0,3.0025417E1,2.0938253E1,0E0,0E0,0E0,0E0,0E0,0E0,0E0,0E0,0E0,0E0,0E0,0E0,0E0,0E0,0E0,0E0],"parents":[2147483647,0,0,1,1,2,2,3,3,4,4,5,5,6,6,7,7,8,8,9,9,10,10,11,11,12,12,13,13,14,14],"right_children":[2,4,6,8,10,12,14,16,18,20,22,24,26,28,30,-1,-1,-1,-1,-1,-1,-1,-1,-1,-1,-1,-1,-1,-1,-1,-1],"split_conditions":[4.7316375E-1,4.650104E-1,2.9656723E-1,6.996097E-1,2.0661959E-1,7.533856E-1,-5.624607E1,-1.5479751E1,9.9574065E-1,3.3357912E-1,1.6316596E-1,9.999857E-1,2.5903925E-1,4.4934422E-1,-2.4215229E-1,-2.4964904E-2,4.7672503E-2,-8.167482E-3,1.2639472E-1,-1.43691795E-2,1.2919526E-1,4.4997808E-2,-2.2087393E-2,-7.1512507E-3,8.420604E-2,3.8543697E-2,-2.059648E-2,4.2627226E-3,1.4848779E-1,1.0867049E-1,-1.7879002E-2],"split_indices":[109,115,52,205,88,201,113,203,207,172,7,147,205,204,194,0,0,0,0,0,0,0,0,0,0,0,0,0,0,0,0],"split_type":[0,0,0,0,0,0,0,0,0,0,0,0,0,0,0,0,0,0,0,0,0,0,0,0,0,0,0,0,0,0,0],"sum_hessian":[2.5255135E2,1.6814905E2,8.44023E1,1.4166464E2,2.6484402E1,5.3361954E1,3.104034E1,1.3660716E2,5.0574784E0,1.0915005E1,1.5569398E1,1.9110727E1,3.425123E1,1.5256759E1,1.5783582E1,1.3542479E2,1.1823775E0,3.1542552E0,1.9032233E0,5.150871E0,5.7641344E0,1.263146E0,1.4306252E1,1.2306649E1,6.804078E0,2.2006319E0,3.2050594E1,5.6799145E0,9.576844E0,3.3210464E0,1.2462535E1],"tree_param":{"num_deleted":"0","num_feature":"210","num_nodes":"31","size_leaf_vector":"1"}},{"base_weights":[-4.4327136E-3,1.1337328E0,-1.2989444E-1,2.2641711E0,2.0079315E-1,2.4724326E-1,-3.009243E-1,-9.124317E-2,2.9767416E0,-2.3489064E-2,9.289496E-1,6.3341045E-1,-2.992286E-1,7.984796E-2,-3.296863E-1,-1.4729226E-2,8.232447E-3,1.725757E-1,-1.1461114E-2,9.179778E-2,-0E0,6.865889E-3,8.773234E-2,2.960123E-2,-2.2397136E-2,4.4730846E-2,-1.760299E-2],"categories":[],"categories_nodes":[],"categories_segments":[],"categories_sizes":[],"default_left":[0,0,0,0,0,0,0,0,0,0,0,0,0,0,0,0,0,0,0,0,0,0,0,0,0,0,0],"id":12,"left_children":[1,3,5,7,9,11,13,15,17,-1,19,21,23,-1,25,-1,-1,-1,-1,-1,-1,-1,-1,-1,-1,-1,-1],"loss_changes":[3.6400402E1,2.5981518E1,1.4933426E1,1.9515358E1,7.8099055E0,1.5462541E1,9.082767E0,2.4677324E-1,1.4405769E1,0E0,6.5379663E0,2.334459E1,4.2897825E0,0E0,4.5769463E0,0E0,0E0,0E0,0E0,0E0,0E0,0E0,0E0,0E0,0E0,0E0,0E0],"parents":[2147483647,0,0,1,1,2,2,3,3,4,4,5,5,6,6,7,7,8,8,10,10,11,11,12,12,14,14],"right_children":[2,4,6,8,10,12,14,16,18,-1,20,22,24,-1,26,-1,-1,-1,-1,-1,-1,-1,-1,-1,-1,-1,-1],"split_conditions":[1.419375E-1,4.1436303E-2,9.996697E-1,3.8370207E-1,3.634574E-1,-8.389857E1,9.721362E-2,7.245637E-1,5.942807E-1,-2.3489064E-2,9.958485E1,1.7704915E-3,6.6517717E-1,7.984796E-2,1.0704646E-1,-1.4729226E-2,8.232447E-3,1.725757E-1,-1.1461114E-2,9.179778E-2,-0E0,6.865889E-3,8.773234E-2,2.960123E-2,-2.2397136E-2,4.4730846E-2,-1.760299E-2],"split_indices":[205,142,75,79,97,125,117,157,204,0,197,140,87,0,159,0,0,0,0,0,0,0,0,0,0,0,0],"split_type":[0,0,0,0,0,0,0,0,0,0,0,0,0,0,0,0,0,0,0,0,0,0,0,0,0,0,0],"sum_hessian":[2.5358325E2,2.4300459E1,2.2928279E2,1.029362E1,1.4006839E1,7.121543E1,1.5806735E2,2.560722E0,7.7328978E0,7.404959E0,6.6018796E0,4.1742077E1,2.9473356E1,1.4938596E0,1.565735E2,1.5603746E0,1.0003475E0,6.6958995E0,1.0369982E0,2.8857982E0,3.7160811E0,2.9778284E1,1.1963791E1,3.692226E0,2.578113E1,2.030079E0,1.5454343E2],"tree_param":{"num_deleted":"0","num_feature":"210","num_nodes":"27","size_leaf_vector":"1"}},{"base_weights":[-2.3523694E-2,2.785329E-1,-4.1236264E-1,6.4847567E-3,1.1439164E0,7.846527E-2,-4.474598E-1,9.443162E-1,-1.1088032E-1,1.6470118E0,-2.7281106E-1,-4.734044E-1,5.5968285E-1,1.089704E-1,9.308047E-3,5.4125458E-2,-1.0093467E-2,-2.0098928E-2,9.982963E-2,3.328693E-2,-2.3537973E-2,2.5613949E-2,-2.4566153E-2,-1.1997725E-2,5.8787566E-2],"categories":[],"categories_nodes":[],"categories_segments":[],"categories_sizes":[],"default_left":[0,0,0,0,0,0,0,0,0,0,0,0,0,0,0,0,0,0,0,0,0,0,0,0,0],"id":13,"left_children":[1,3,5,7,9,-1,11,13,15,17,19,21,23,-1,-1,-1,-1,-1,-1,-1,-1,-1,-1,-1,-1],"loss_changes":[2.9740446E1,3.338998E1,8.294523E0,1.2229036E1,2.4786613E1,0E0,3.1221237E0,1.093847E1,1.0774845E1,1.9048012E1,2.0966184E0,2.1493244E0,1.910641E0,0E0,0E0,0E0,0E0,0E0,0E0,0E0,0E0,0E0,0E0,0E0,0E0],"parents":[2147483647,0,0,1,1,2,2,3,3,4,4,6,6,7,7,8,8,9,9,10,10,11,11,12,12],"right_children":[2,4,6,8,10,-1,12,14,16,18,20,22,24,-1,-1,-1,-1,-1,-1,-1,-1,-1,-1,-1,-1],"split_conditions":[4.369732E-1,9.383648E-1,1.2846889E-1,3.1945005E-1,4.495424E-1,7.846527E-2,9.016847E-1,3.4626827E-1,4.8242447E-1,1.87772E-1,2.6316425E-1,6.8234734E-2,1.0712888E2,1.089704E-1,9.308047E-3,5.4125458E-2,-1.0093467E-2,-2.0098928E-2,9.982963E-2,3.328693E-2,-2.3537973E-2,2.5613949E-2,-2.4566153E-2,-1.1997725E-2,5.8787566E-2],"split_indices":[121,135,46,196,103,0,204,199,66,1,52,204,185,0,0,0,0,0,0,0,0,0,0,0,0],"split_type":[0,0,0,0,0,0,0,0,0,0,0,0,0,0,0,0,0,0,0,0,0,0,0,0,0],"sum_hessian":[2.5112315E2,1.413481E2,1.09775055E2,1.0839524E2,3.2952854E1,1.1000706E0,1.0867499E2,1.1367422E1,9.702782E1,2.4249596E1,8.703257E0,1.06559204E2,2.1157863E0,3.5605314E0,7.806891E0,6.023883E0,9.100394E1,3.470731E0,2.0778866E1,1.0162847E0,7.6869717E0,1.3103168E0,1.05248886E2,1.1157568E0,1.0000297E0],"tree_param":{"num_deleted":"0","num_feature":"210","num_nodes":"25","size_leaf_vector":"1"}},{"base_weights":[6.7982473E-3,-1.0731333E-1,9.100478E-1,-2.5452772E-1,3.1197488E-1,1.4548703E0,-3.6972275E-1,1.7950892E-1,-3.9373377E-1,1.093493E0,-1.4188048E-1,2.0150363E0,-2.1768145E-3,7.539904E-3,-2.3326507E-2,-4.34746E-3,8.071823E-2,3.6051985E-2,-2.1465171E-2,1.0429132E-1,1.2309071E-2,3.3637717E-2,-2.4304828E-2,-1.589371E-2,1.19093195E-1,-2.1412726E-2,5.2087434E-2],"categories":[],"categories_nodes":[],"categories_segments":[],"categories_sizes":[],"default_left":[0,0,0,0,0,0,0,0,0,0,0,0,0,0,0,0,0,0,0,0,0,0,0,0,0,0,0],"id":14,"left_children":[1,3,5,7,9,11,13,15,17,19,21,23,25,-1,-1,-1,-1,-1,-1,-1,-1,-1,-1,-1,-1,-1,-1],"loss_changes":[2.6217695E1,1.39678755E1,2.0546415E1,1.0202259E1,2.1095043E1,1.675468E1,5.687822E-1,1.6024696E1,5.323448E0,1.7571419E1,1.0958837E1,1.3540119E1,3.3114543E0,0E0,0E0,0E0,0E0,0E0,0E0,0E0,0E0,0E0,0E0,0E0,0E0,0E0,0E0],"parents":[2147483647,0,0,1,1,2,2,3,3,4,4,5,5,6,6,7,7,8,8,9,9,10,10,11,11,12,12],"right_children":[2,4,6,8,10,12,14,16,18,20,22,24,26,-1,-1,-1,-1,-1,-1,-1,-1,-1,-1,-1,-1,-1,-1],"split_conditions":[9.989342E-1,6.286102E-1,2.1810982E-1,-1.17228455E2,3.1214803E-1,-1.2875504E-2,-1.3910158E2,-6.837941E1,2.3755306E-1,-1.0663383E2,3.170864E-1,9.557046E-2,5.890122E-1,7.539904E-3,-2.3326507E-2,-4.34746E-3,8.071823E-2,3.6051985E-2,-2.1465171E-2,1.0429132E-1,1.2309071E-2,3.3637717E-2,-2.4304828E-2,-1.589371E-2,1.19093195E-1,-2.1412726E-2,5.2087434E-2],"split_indices":[207,204,202,209,208,50,209,203,73,203,166,202,112,0,0,0,0,0,0,0,0,0,0,0,0,0,0],"split_type":[0,0,0,0,0,0,0,0,0,0,0,0,0,0,0,0,0,0,0,0,0,0,0,0,0,0,0],"sum_hessian":[2.5163852E2,2.2409773E2,2.7540792E1,1.6632986E2,5.7767868E1,1.9275967E1,8.264826E0,4.0146736E1,1.2618313E2,2.078612E1,3.698175E1,1.3696124E1,5.5798426E0,1.0466158E0,7.2182097E0,3.4592487E1,5.5542474E0,3.2188823E0,1.2296425E2,8.846166E0,1.1939954E1,1.0614975E1,2.6366774E1,1.8420553E0,1.1854069E1,4.449385E0,1.1304572E0],"tree_param":{"num_deleted":"0","num_feature":"210","num_nodes":"27","size_leaf_vector":"1"}},{"base_weights":[-4.5258873E-3,2.7715318E0,-6.9666885E-2,1.7656104E-1,-1.1754204E-2,2.1965692E0,-1.2312209E-1,-1.5010227E-2,1.6557036E-1,7.7317923E-1,-2.4276285E-1,1.7465794E-1,2.1697903E-2,6.598032E-2,-1.50166E-2],"categories":[],"categories_nodes":[],"categories_segments":[],"categories_sizes":[],"default_left":[0,0,0,0,0,0,0,0,0,0,0,0,0,0,0],"id":15,"left_children":[1,3,5,-1,-1,7,9,-1,-1,11,13,-1,-1,-1,-1],"loss_changes":[4.5084934E1,1.42138405E1,2.9746098E1,0E0,0E0,1.7039736E1,2.5910524E1,0E0,0E0,2.4338999E1,1.9445547E1,0E0,0E0,0E0,0E0],"parents":[2147483647,0,0,1,1,2,2,5,5,6,6,9,9,10,10],"right_children":[2,4,6,-1,-1,8,10,-1,-1,12,14,-1,-1,-1,-1],"split_conditions":[2.0261995E-1,1.4112745E-1,2.3463199E-1,1.7656104E-1,-1.1754204E-2,4.751621E-1,4.34687E-1,-1.5010227E-2,1.6557036E-1,3.308361E-1,-1.9151405E-1,1.7465794E-1,2.1697903E-2,6.598032E-2,-1.50166E-2],"split_indices":[115,158,109,0,0,156,120,0,0,109,182,0,0,0,0],"split_type":[0,0,0,0,0,0,0,0,0,0,0,0,0,0,0],"sum_hessian":[2.4874147E2,4.71522E0,2.4402625E2,3.6513906E0,1.0638292E0,4.656378E0,2.3936987E2,1.6352093E0,3.0211687E0,2.7447289E1,2.1192258E2,1.9798518E0,2.5467436E1,6.690476E0,2.052321E2],"tree_param":{"num_deleted":"0","num_feature":"210","num_nodes":"15","size_leaf_vector":"1"}},{"base_weights":[3.0626675E-2,-3.4360576E-1,1.8102102E0,-4.3667492E-1,1.196212E0,3.1607058E0,1.108672E0,1.8028767E0,-4.952514E-1,3.6475074E-1,2.7668943E0,1.9874538E-1,3.672313E0,7.0799994E-1,1.8539518E-1,-1.54198995E-2,1.4973591E-1,-2.5515897E-2,5.5348724E-2,-1.3363955E-2,5.860653E-2,1.7332473E-1,2.7537873E-2,3.140603E-2,-1.2497922E-2,1.9641964E-1,2.8764982E-2,-1.0317637E-2,9.2842124E-2],"categories":[],"categories_nodes":[],"categories_segments":[],"categories_sizes":[],"default_left":[0,0,0,0,0,0,0,0,0,0,0,0,0,0,0,0,0,0,0,0,0,0,0,0,0,0,0,0,0],"id":16,"left_children":[1,3,5,7,9,11,13,15,17,19,21,23,25,27,-1,-1,-1,-1,-1,-1,-1,-1,-1,-1,-1,-1,-1,-1,-1],"loss_changes":[1.6520778E2,2.979702E1,3.6910477E1,2.6202354E1,1.4191694E1,2.032315E1,2.813422E1,1.4062929E1,5.0872803E0,4.9764853E0,3.7641926E0,8.05537E-1,6.789688E0,2.9149162E1,0E0,0E0,0E0,0E0,0E0,0E0,0E0,0E0,0E0,0E0,0E0,0E0,0E0,0E0,0E0],"parents":[2147483647,0,0,1,1,2,2,3,3,4,4,5,5,6,6,7,7,8,8,9,9,10,10,11,11,12,12,13,13],"right_children":[2,4,6,8,10,12,14,16,18,20,22,24,26,28,-1,-1,-1,-1,-1,-1,-1,-1,-1,-1,-1,-1,-1,-1,-1],"split_conditions":[7.3369837E-1,-3.5399826E1,1.7020063E-1,-1.4501897E2,9.8398995E-1,-1.0419928E-1,9.9254966E-1,9.2970145E-1,1.666102E2,5.292349E-1,2.4528803E-1,5.2614534E-1,3.4277657E-1,2.2658642E-1,1.8539518E-1,-1.54198995E-2,1.4973591E-1,-2.5515897E-2,5.5348724E-2,-1.3363955E-2,5.860653E-2,1.7332473E-1,2.7537873E-2,3.140603E-2,-1.2497922E-2,1.9641964E-1,2.8764982E-2,-1.0317637E-2,9.2842124E-2],"split_indices":[205,107,160,137,159,194,81,111,137,132,94,96,170,88,0,0,0,0,0,0,0,0,0,0,0,0,0,0,0],"split_type":[0,0,0,0,0,0,0,0,0,0,0,0,0,0,0,0,0,0,0,0,0,0,0,0,0,0,0,0,0],"sum_hessian":[2.4591379E2,2.0380576E2,4.2108025E1,1.9292633E2,1.0879435E1,1.3148526E1,2.8959497E1,4.1149335E0,1.8881139E2,7.961043E0,2.918392E0,2.1698818E0,1.0978644E1,2.62274E1,2.7320976E0,1.7219474E0,2.3929863E0,1.8778943E2,1.0219681E0,4.7711825E0,3.1898603E0,1.7550273E0,1.1633646E0,1.0183792E0,1.1515025E0,9.862425E0,1.1162198E0,1.5012464E1,1.1214937E1],"tree_param":{"num_deleted":"0","num_feature":"210","num_nodes":"29","size_leaf_vector":"1"}},{"base_weights":[2.0975817E-2,7.360133E-1,-4.071507E-1,1.4950851E0,5.5681832E-2,-4.3940702E-1,8.3367296E-2,-2.585376E-1,2.0376134E0,1.6651795E0,-1.8273754E-1,-4.854964E-1,1.1528931E-1,-2.4157196E-2,4.5969922E-2,1.2771802E-1,1.2379737E-2,1.1831383E-1,-1.4886369E-2,1.7679164E-2,-1.8592576E-2,-2.604462E-2,1.561167E-2,-1.8518617E-2,1.227118E-1],"categories":[],"categories_nodes":[],"categories_segments":[],"categories_sizes":[],"default_left":[0,0,0,0,0,0,0,0,0,0,0,0,0,0,0,0,0,0,0,0,0,0,0,0,0],"id":17,"left_children":[1,3,5,7,9,11,-1,13,15,17,19,21,23,-1,-1,-1,-1,-1,-1,-1,-1,-1,-1,-1,-1],"loss_changes":[7.630268E1,4.7987198E1,1.1034079E1,4.2594177E1,1.9775343E1,4.03611E0,0E0,3.3762374E0,3.0335861E1,1.0062698E1,4.6675186E0,4.2145805E0,1.5286859E1,0E0,0E0,0E0,0E0,0E0,0E0,0E0,0E0,0E0,0E0,0E0,0E0],"parents":[2147483647,0,0,1,1,2,2,3,3,4,4,5,5,7,7,8,8,9,9,10,10,11,11,12,12],"right_children":[2,4,6,8,10,12,-1,14,16,18,20,22,24,-1,-1,-1,-1,-1,-1,-1,-1,-1,-1,-1,-1],"split_conditions":[4.1243464E-1,-4.2563608E-1,-7.358473E-3,1.8053883E-1,2.3333764E-1,4.296146E-1,8.3367296E-2,9.988912E-1,9.9990046E-1,4.817262E-1,-3.7911782E-1,4.0337017E-1,4.7524932E-1,-2.4157196E-2,4.5969922E-2,1.2771802E-1,1.2379737E-2,1.1831383E-1,-1.4886369E-2,1.7679164E-2,-1.8592576E-2,-2.604462E-2,1.561167E-2,-1.8518617E-2,1.227118E-1],"split_indices":[205,92,26,154,4,88,0,207,57,1,128,82,72,0,0,0,0,0,0,0,0,0,0,0,0],"split_type":[0,0,0,0,0,0,0,0,0,0,0,0,0,0,0,0,0,0,0,0,0,0,0,0,0],"sum_hessian":[2.471658E2,9.2384254E1,1.5478156E2,4.3029747E1,4.9354504E1,1.5323529E2,1.5462644E0,1.0247081E1,3.2782665E1,5.649772E0,4.370473E1,1.4176146E2,1.147384E1,9.17277E0,1.0743113E0,2.5064205E1,7.7184596E0,4.049021E0,1.6007515E0,1.1028842E1,3.267589E1,1.3619093E2,5.5705266E0,1.0162568E1,1.3112719E0],"tree_param":{"num_deleted":"0","num_feature":"210","num_nodes":"25","size_leaf_vector":"1"}},{"base_weights":[-1.4292942E-2,-1.466134E-1,9.222749E-1,5.3351414E-1,-3.3991382E-1,2.0679307E-1,2.0482233E0,-1.8300223E-1,1.0822667E0,-4.0282968E-1,1.348124E-1,-2.724341E-1,1.112581E0,2.860632E0,-1.3679649E-1,-1.7890602E-2,5.3928662E-2,8.343917E-2,-7.998658E-3,-2.2258217E-2,1.1770388E-2,5.7767272E-2,-2.1255935E-2,2.1392602E-2,-2.4414428E-2,8.641873E-2,-1.6498746E-2,1.6572362E-1,-1.14934025E-2,1.0451301E-2,-1.7129019E-2],"categories":[],"categories_nodes":[],"categories_segments":[],"categories_sizes":[],"default_left":[0,0,0,0,0,0,0,0,0,0,0,0,0,0,0,0,0,0,0,0,0,0,0,0,0,0,0,0,0,0,0],"id":18,"left_children":[1,3,5,7,9,11,13,15,17,19,21,23,25,27,29,-1,-1,-1,-1,-1,-1,-1,-1,-1,-1,-1,-1,-1,-1,-1,-1],"loss_changes":[3.1508987E1,2.9522715E1,2.4695639E1,1.9829527E1,5.2968693E0,9.2438E0,2.2067135E1,5.238728E0,2.1087013E1,4.303797E0,1.2563354E1,2.3424978E0,7.22033E0,1.3509132E1,3.8307106E-1,0E0,0E0,0E0,0E0,0E0,0E0,0E0,0E0,0E0,0E0,0E0,0E0,0E0,0E0,0E0,0E0],"parents":[2147483647,0,0,1,1,2,2,3,3,4,4,5,5,6,6,7,7,8,8,9,9,10,10,11,11,12,12,13,13,14,14],"right_children":[2,4,6,8,10,12,14,16,18,20,22,24,26,28,30,-1,-1,-1,-1,-1,-1,-1,-1,-1,-1,-1,-1,-1,-1,-1,-1],"split_conditions":[5.606543E-1,4.5721522E-1,9.779875E-1,1.04792215E-1,5.39933E-1,4.1653895E-1,8.0487007E-1,5.762766E-1,8.8677466E-1,3.952668E-1,5.333226E-1,5.922479E-1,1.0841031E0,6.2016875E-1,4.982982E-1,-1.7890602E-2,5.3928662E-2,8.343917E-2,-7.998658E-3,-2.2258217E-2,1.1770388E-2,5.7767272E-2,-2.1255935E-2,2.1392602E-2,-2.4414428E-2,8.641873E-2,-1.6498746E-2,1.6572362E-1,-1.14934025E-2,1.0451301E-2,-1.7129019E-2],"split_indices":[108,102,159,158,108,73,105,66,123,202,90,78,143,198,144,0,0,0,0,0,0,0,0,0,0,0,0,0,0,0,0],"split_type":[0,0,0,0,0,0,0,0,0,0,0,0,0,0,0,0,0,0,0,0,0,0,0,0,0,0,0,0,0,0,0],"sum_hessian":[2.5278903E2,2.2232822E2,3.0460815E1,4.869998E1,1.7362823E2,1.9403421E1,1.1057393E1,2.1331423E1,2.7368557E1,1.5362967E2,1.9998568E1,1.30747595E1,6.328662E0,7.8684144E0,3.1889787E0,1.9434175E1,1.8972478E0,1.8412384E1,8.956173E0,1.4450385E2,9.125834E0,6.771685E0,1.3226882E1,2.7400246E0,1.0334735E1,4.34505E0,1.9836124E0,6.825914E0,1.0425009E0,1.0025234E0,2.1864552E0],"tree_param":{"num_deleted":"0","num_feature":"210","num_nodes":"31","size_leaf_vector":"1"}},{"base_weights":[1.5143645E-2,-1.5110683E-1,9.113837E-1,-3.465856E-1,6.1204284E-2,-3.1492956E-2,1.3331676E0,6.8513736E-2,-4.241252E-1,5.0688976E-1,-1.6075581E-1,3.974538E-2,-2.2453597E-1,1.8483542E-1,1.877753E0,-1.2755289E-2,7.0464216E-2,2.3500018E-2,-2.2713047E-2,-6.7615523E-3,5.198893E-2,-1.7830607E-2,3.085514E-2,-1.957856E-2,1.3219222E-2,7.6806135E-2,-1.023268E-2,1.1355882E-1,3.8781052E-3],"categories":[],"categories_nodes":[],"categories_segments":[],"categories_sizes":[],"default_left":[0,0,0,0,0,0,0,0,0,0,0,0,0,0,0,0,0,0,0,0,0,0,0,0,0,0,0,0,0],"id":19,"left_children":[1,3,5,7,9,11,13,15,17,19,21,-1,23,25,27,-1,-1,-1,-1,-1,-1,-1,-1,-1,-1,-1,-1,-1,-1],"loss_changes":[3.7607525E1,8.867294E0,1.5883038E1,3.6376438E0,1.0250841E1,2.2135036E0,1.6576382E1,8.341729E0,2.741518E0,1.2019151E1,1.0705961E1,0E0,1.0560992E0,5.6999454E0,1.2628929E1,0E0,0E0,0E0,0E0,0E0,0E0,0E0,0E0,0E0,0E0,0E0,0E0,0E0,0E0],"parents":[2147483647,0,0,1,1,2,2,3,3,4,4,5,5,6,6,7,7,8,8,9,9,10,10,12,12,13,13,14,14],"right_children":[2,4,6,8,10,12,14,16,18,20,22,-1,24,26,28,-1,-1,-1,-1,-1,-1,-1,-1,-1,-1,-1,-1,-1,-1],"split_conditions":[9.9837625E-1,-6.5906145E-2,-6.4694144E-2,3.7474984E-1,7.100588E-1,5.4972756E-1,-4.0110186E-2,-1.443191E-1,3.9941192E-1,3.792487E-1,5.193747E-1,3.974538E-2,8.857036E-1,-1.536998E2,2.2781841E-1,-1.2755289E-2,7.0464216E-2,2.3500018E-2,-2.2713047E-2,-6.7615523E-3,5.198893E-2,-1.7830607E-2,3.085514E-2,-1.957856E-2,1.3219222E-2,7.6806135E-2,-1.023268E-2,1.1355882E-1,3.8781052E-3],"split_indices":[207,44,68,192,157,117,170,62,114,97,205,0,163,209,202,0,0,0,0,0,0,0,0,0,0,0,0,0,0],"split_type":[0,0,0,0,0,0,0,0,0,0,0,0,0,0,0,0,0,0,0,0,0,0,0,0,0,0,0,0,0],"sum_hessian":[2.4996439E2,2.1145905E2,3.8505344E1,1.1000967E2,1.0144938E2,1.21138E1,2.6391546E1,1.7130455E1,9.287921E1,3.345006E1,6.799932E1,1.6054051E0,1.0508394E1,8.979689E0,1.7411858E1,1.4391863E1,2.7385917E0,2.4442425E0,9.043497E1,1.5423552E1,1.802651E1,5.485702E1,1.3142296E1,8.133351E0,2.375043E0,1.40791E0,7.571779E0,1.4028757E1,3.3831E0],"tree_param":{"num_deleted":"0","num_feature":"210","num_nodes":"29","size_leaf_vector":"1"}},{"base_weights":[-4.2718135E-2,-2.5628135E-1,9.622303E-1,7.6618314E-1,-3.4829414E-1,2.4776542E0,5.6459373E-1,-1.959452E-1,1.8841377E0,6.49743E-2,-4.516581E-1,-1.706644E-2,3.4243526E0,-1.9989924E-1,1.5820367E0,-2.346397E-2,3.4393318E-2,1.5968995E-1,1.6885044E-2,5.1826637E-2,-1.452254E-2,-1.0952702E-3,-2.426483E-2,1.9282919E-1,2.973381E-2,4.0458858E-2,-2.2760173E-2,1.0656257E-1,-1.9682242E-2],"categories":[],"categories_nodes":[],"categories_segments":[],"categories_sizes":[],"default_left":[0,0,0,0,0,0,0,0,0,0,0,0,0,0,0,0,0,0,0,0,0,0,0,0,0,0,0,0,0],"id":20,"left_children":[1,3,5,7,9,11,13,15,17,19,21,-1,23,25,27,-1,-1,-1,-1,-1,-1,-1,-1,-1,-1,-1,-1,-1,-1],"loss_changes":[5.4656853E1,2.0003353E1,2.5183823E1,1.9446875E1,8.340145E0,2.5300415E1,2.8994705E1,2.7906208E0,1.5324869E1,1.3989619E1,2.1826077E0,0E0,5.5781403E0,5.944477E0,1.8276382E1,0E0,0E0,0E0,0E0,0E0,0E0,0E0,0E0,0E0,0E0,0E0,0E0,0E0,0E0],"parents":[2147483647,0,0,1,1,2,2,3,3,4,4,5,5,6,6,7,7,8,8,9,9,10,10,12,12,13,13,14,14],"right_children":[2,4,6,8,10,12,14,16,18,20,22,-1,24,26,28,-1,-1,-1,-1,-1,-1,-1,-1,-1,-1,-1,-1,-1,-1],"split_conditions":[2.804832E-1,-8.473665E1,-8.272189E1,-8.1907364E1,7.662854E-1,3.6832327E-1,5.132979E-1,5.0639963E-1,9.999E-1,1.746914E-1,9.9958116E-1,-1.706644E-2,5.2770907E-1,4.68375E-1,-8.018345E1,-2.346397E-2,3.4393318E-2,1.5968995E-1,1.6885044E-2,5.1826637E-2,-1.452254E-2,-1.0952702E-3,-2.426483E-2,1.9282919E-1,2.973381E-2,4.0458858E-2,-2.2760173E-2,1.0656257E-1,-1.9682242E-2],"split_indices":[202,83,83,71,165,184,108,97,69,160,69,0,94,90,119,0,0,0,0,0,0,0,0,0,0,0,0,0,0],"split_type":[0,0,0,0,0,0,0,0,0,0,0,0,0,0,0,0,0,0,0,0,0,0,0,0,0,0,0,0,0],"sum_hessian":[2.5284792E2,2.0922885E2,4.361907E1,1.6579575E1,1.9264928E2,7.9268384E0,3.569223E1,9.305985E0,7.273589E0,3.8424583E1,1.5422469E2,2.1270244E0,5.7998137E0,2.0782091E1,1.4910141E1,7.5524364E0,1.7535489E0,3.3264909E0,3.9470983E0,9.853892E0,2.8570688E1,1.1531137E1,1.4269356E2,4.685813E0,1.1140009E0,3.6791792E0,1.7102911E1,1.1644883E1,3.2652578E0],"tree_param":{"num_deleted":"0","num_feature":"210","num_nodes":"29","size_leaf_vector":"1"}},{"base_weights":[-2.1574065E-2,-3.763296E-1,1.7229936E0,-4.4105965E-1,2.0204642E0,2.1373785E0,1.4622921E-1,-5.2320063E-1,2.2773546E-1,2.4656752E-1,1.5648404E-1,1.080302E0,3.265448E0,1.2131274E0,-3.2303545E-1,3.5900917E-2,-2.7044404E-2,9.984859E-2,-1.3932462E-2,3.4793023E-2,-1.2600933E-2,1.2574874E-1,1.7588442E-2,-1.3205274E-2,1.7999642E-1,1.0361594E-1,-1.1996151E-2,-2.2559552E-2,9.72631E-3],"categories":[],"categories_nodes":[],"categories_segments":[],"categories_sizes":[],"default_left":[0,0,0,0,0,0,0,0,0,0,0,0,0,0,0,0,0,0,0,0,0,0,0,0,0,0,0,0,0],"id":21,"left_children":[1,3,5,7,9,11,13,15,17,19,-1,21,23,25,27,-1,-1,-1,-1,-1,-1,-1,-1,-1,-1,-1,-1,-1,-1],"loss_changes":[1.5680884E2,3.34271E1,2.7428703E1,1.1468246E1,1.0067099E1,3.6312576E1,5.503685E0,4.409073E0,2.1426136E1,9.6022546E-1,0E0,1.8662636E1,1.9935577E1,4.850333E0,6.2365496E-1,0E0,0E0,0E0,0E0,0E0,0E0,0E0,0E0,0E0,0E0,0E0,0E0,0E0,0E0],"parents":[2147483647,0,0,1,1,2,2,3,3,4,4,5,5,6,6,7,7,8,8,9,9,11,11,12,12,13,13,14,14],"right_children":[2,4,6,8,10,12,14,16,18,20,-1,22,24,26,28,-1,-1,-1,-1,-1,-1,-1,-1,-1,-1,-1,-1,-1,-1],"split_conditions":[7.250443E-1,-7.8516555E0,-2.7518251E1,5.172433E-1,9.670059E-1,5.000367E-1,8.018617E-1,1.3185853E-1,7.8904676E-1,4.3025383E-1,1.5648404E-1,5.2752525E-1,7.920418E-1,9.927712E-1,2.2311959E-1,3.5900917E-2,-2.7044404E-2,9.984859E-2,-1.3932462E-2,3.4793023E-2,-1.2600933E-2,1.2574874E-1,1.7588442E-2,-1.3205274E-2,1.7999642E-1,1.0361594E-1,-1.1996151E-2,-2.2559552E-2,9.72631E-3],"split_indices":[205,131,95,121,165,120,159,94,175,108,0,78,123,201,154,0,0,0,0,0,0,0,0,0,0,0,0,0,0],"split_type":[0,0,0,0,0,0,0,0,0,0,0,0,0,0,0,0,0,0,0,0,0,0,0,0,0,0,0,0,0],"sum_hessian":[2.5153893E2,2.0973184E2,4.1807087E1,2.0505171E2,4.6801157E0,3.2774696E1,9.03239E0,1.8294923E2,2.210249E1,2.3055098E0,2.374606E0,1.797615E1,1.4798547E1,2.3400636E0,6.6923265E0,1.9346695E0,1.8101456E2,4.3072968E0,1.7795193E1,1.1100795E0,1.1954304E0,5.1820226E0,1.2794128E1,1.2733321E0,1.3525215E1,1.2459604E0,1.0941031E0,5.621752E0,1.0705745E0],"tree_param":{"num_deleted":"0","num_feature":"210","num_nodes":"29","size_leaf_vector":"1"}},{"base_weights":[2.5126893E-2,6.0815984E-1,-2.5165188E-1,1.2090213E0,9.749083E-2,9.424206E-1,-3.0400848E-1,1.5033613E0,-1.9528116E-1,1.2841917E0,-3.5550067E-1,1.7971942E-1,1.1681571E-1,1.6673395E-1,-4.24357E-1,4.920496E-2,1.3659163E-1,-2.2169208E-2,3.1304516E-2,1.2732747E-1,-2.7044208E-3,5.5157866E-2,-2.189515E-2,7.8143574E-2,-2.0652993E-2,7.197486E-2,-8.8759E-3,-3.4119745E-4,-2.40828E-2],"categories":[],"categories_nodes":[],"categories_segments":[],"categories_sizes":[],"default_left":[0,0,0,0,0,0,0,0,0,0,0,0,0,0,0,0,0,0,0,0,0,0,0,0,0,0,0,0,0],"id":22,"left_children":[1,3,5,7,9,11,13,15,17,19,21,23,-1,25,27,-1,-1,-1,-1,-1,-1,-1,-1,-1,-1,-1,-1,-1,-1],"loss_changes":[4.1040024E1,2.4881786E1,1.0991399E1,1.5903862E1,2.4981997E1,7.1947207E0,9.492568E0,1.6800415E1,1.7500951E0,2.206896E1,4.457114E0,5.6078644E0,0E0,1.5417736E1,3.1186695E0,0E0,0E0,0E0,0E0,0E0,0E0,0E0,0E0,0E0,0E0,0E0,0E0,0E0,0E0],"parents":[2147483647,0,0,1,1,2,2,3,3,4,4,5,5,6,6,7,7,8,8,9,9,10,10,11,11,13,13,14,14],"right_children":[2,4,6,8,10,12,14,16,18,20,22,24,-1,26,28,-1,-1,-1,-1,-1,-1,-1,-1,-1,-1,-1,-1,-1,-1],"split_conditions":[3.6525282E-1,2.2781841E-1,2.1656373E-1,9.5759183E-1,3.7804164E-2,2.0925269E-1,3.7163952E-1,2.3701471E-1,5.4721344E-1,9.9967635E-1,-1.0982396E-1,-2.0448758E-1,1.1681571E-1,9.9814904E-1,4.2687553E-1,4.920496E-2,1.3659163E-1,-2.2169208E-2,3.1304516E-2,1.2732747E-1,-2.7044208E-3,5.5157866E-2,-2.189515E-2,7.8143574E-2,-2.0652993E-2,7.197486E-2,-8.8759E-3,-3.4119745E-4,-2.40828E-2],"split_indices":[205,202,34,93,142,34,91,76,204,75,205,80,0,63,205,0,0,0,0,0,0,0,0,0,0,0,0,0,0],"split_type":[0,0,0,0,0,0,0,0,0,0,0,0,0,0,0,0,0,0,0,0,0,0,0,0,0,0,0,0,0],"sum_hessian":[2.5215134E2,8.0899994E1,1.7125136E2,3.644953E1,4.445046E1,6.3991394E0,1.6485222E2,3.0134127E1,6.315403E0,1.183422E1,3.261624E1,4.912064E0,1.4870751E0,3.3316925E1,1.315353E2,2.250428E1,7.629848E0,5.297255E0,1.0181478E0,5.6637E0,6.1705203E0,1.0167665E0,3.1599474E1,1.0332736E0,3.8787906E0,6.477473E0,2.6839453E1,1.6218288E1,1.15317E2],"tree_param":{"num_deleted":"0","num_feature":"210","num_nodes":"29","size_leaf_vector":"1"}},{"base_weights":[2.9423E-2,7.8761655E-1,-2.4154815E-1,-1.4318335E-1,1.3084044E0,-3.4740567E-1,7.0850503E-1,2.4348404E-1,-2.4866836E-2,1.9437034E-1,1.9579571E0,7.191057E-1,-3.8172594E-1,1.5206228E-1,2.0701826E-1,6.2364668E-2,-9.141339E-3,1.0276719E-1,-2.1429205E-2,-6.2292083E-3,1.2183098E-1,-8.804615E-3,1.0735577E-1,-3.942243E-3,-2.303216E-2,-3.17616E-3,7.9800494E-2],"categories":[],"categories_nodes":[],"categories_segments":[],"categories_sizes":[],"default_left":[0,0,0,0,0,0,0,0,0,0,0,0,0,0,0,0,0,0,0,0,0,0,0,0,0,0,0],"id":23,"left_children":[1,3,5,7,9,11,13,15,-1,17,19,21,23,-1,25,-1,-1,-1,-1,-1,-1,-1,-1,-1,-1,-1,-1],"loss_changes":[5.258333E1,3.297896E1,1.9152044E1,3.5721395E0,3.0802467E1,6.4716682E0,2.1408728E1,5.681664E0,0E0,2.0923439E1,2.7690666E1,7.686805E0,3.8695831E0,0E0,6.5836325E0,0E0,0E0,0E0,0E0,0E0,0E0,0E0,0E0,0E0,0E0,0E0,0E0],"parents":[2147483647,0,0,1,1,2,2,3,3,4,4,5,5,6,6,7,7,9,9,10,10,11,11,12,12,14,14],"right_children":[2,4,6,8,10,12,14,16,-1,18,20,22,24,-1,26,-1,-1,-1,-1,-1,-1,-1,-1,-1,-1,-1,-1],"split_conditions":[9.41084E-2,3.9352986E-1,5.320235E-1,3.1507507E-1,4.0954885E-1,1.1046176E-1,7.1650153E-1,9.9989593E-1,-2.4866836E-2,1.9819528E-1,4.305401E-1,9.999155E-1,1.3481832E-1,1.5206228E-1,3.5899794E-1,6.2364668E-2,-9.141339E-3,1.0276719E-1,-2.1429205E-2,-6.2292083E-3,1.2183098E-1,-8.804615E-3,1.0735577E-1,-3.942243E-3,-2.303216E-2,-3.17616E-3,7.9800494E-2],"split_indices":[202,190,115,130,127,199,123,75,0,88,144,75,202,0,52,0,0,0,0,0,0,0,0,0,0,0,0],"split_type":[0,0,0,0,0,0,0,0,0,0,0,0,0,0,0,0,0,0,0,0,0,0,0,0,0,0,0],"sum_hessian":[2.537522E2,6.6406166E1,1.8734604E2,2.4015858E1,4.2390305E1,1.692296E2,1.8116438E1,1.1495313E1,1.2520545E1,1.6148148E1,2.6242155E1,4.5631123E0,1.6466649E2,2.2741277E0,1.584231E1,2.9225473E0,8.572765E0,3.5134559E0,1.2634692E1,5.0035887E0,2.1238567E1,3.300646E0,1.2624663E0,3.471149E1,1.2995499E2,1.3998096E1,1.8442135E0],"tree_param":{"num_deleted":"0","num_feature":"210","num_nodes":"27","size_leaf_vector":"1"}},{"base_weights":[-1.98406E-2,2.4619575E-1,-4.4563988E-1,-2.9651538E-1,7.892509E-1,1.1059729E-1,-4.9268398E-1,8.374663E-1,-3.7556043E-1,1.4323821E0,8.482024E-2,-2.17655E-2,1.1196738E0,2.9779809E-2,-5.135281E-1,-1.8544303E-2,1.1409911E-1,-2.1252511E-2,3.608744E-2,1.6296802E-2,1.2355017E-1,5.4373253E-2,-1.8717272E-2,-1.197536E-2,1.00108124E-1,3.0890767E-2,-1.6893407E-2,-2.62304E-2,3.0610636E-3],"categories":[],"categories_nodes":[],"categories_segments":[],"categories_sizes":[],"default_left":[0,0,0,0,0,0,0,0,0,0,0,0,0,0,0,0,0,0,0,0,0,0,0,0,0,0,0,0,0],"id":24,"left_children":[1,3,5,7,9,11,13,15,17,19,21,-1,23,25,27,-1,-1,-1,-1,-1,-1,-1,-1,-1,-1,-1,-1,-1,-1],"loss_changes":[2.8330938E1,4.5588833E1,2.610899E0,7.2169414E0,3.470262E1,5.048243E0,1.0337543E0,1.0251322E1,4.2545576E0,4.513479E1,1.7964724E1,0E0,4.502834E0,1.1401131E0,6.2547684E-1,0E0,0E0,0E0,0E0,0E0,0E0,0E0,0E0,0E0,0E0,0E0,0E0,0E0,0E0],"parents":[2147483647,0,0,1,1,2,2,3,3,4,4,5,5,6,6,7,7,8,8,9,9,10,10,12,12,13,13,14,14],"right_children":[2,4,6,8,10,12,14,16,18,20,22,-1,24,26,28,-1,-1,-1,-1,-1,-1,-1,-1,-1,-1,-1,-1,-1,-1],"split_conditions":[-5.140262E1,-1.0207303E2,4.5258516E-1,9.9974185E-1,-7.812617E1,-1.6645701E-1,4.3050534E-1,4.2937434E-1,5.716858E-1,2.4759397E-1,8.7728125E-1,-2.17655E-2,4.5053142E-1,-6.3246556E-2,6.750545E-2,-1.8544303E-2,1.1409911E-1,-2.1252511E-2,3.608744E-2,1.6296802E-2,1.2355017E-1,5.4373253E-2,-1.8717272E-2,-1.197536E-2,1.00108124E-1,3.0890767E-2,-1.6893407E-2,-2.62304E-2,3.0610636E-3],"split_indices":[209,209,54,147,209,26,87,84,36,82,189,0,90,50,50,0,0,0,0,0,0,0,0,0,0,0,0,0,0],"split_type":[0,0,0,0,0,0,0,0,0,0,0,0,0,0,0,0,0,0,0,0,0,0,0,0,0,0,0,0,0],"sum_hessian":[2.4795616E2,1.5272292E2,9.523324E1,7.652062E1,7.62023E1,7.1552167E0,8.807802E1,4.278682E0,7.2241936E1,3.9219933E1,3.6982365E1,4.947915E0,2.2073016E0,3.1786304E0,8.489939E1,2.6967998E0,1.5818825E0,6.979776E1,2.444178E0,1.9672676E1,1.9547256E1,1.1255039E1,2.5727327E1,1.1111805E0,1.0961211E0,1.0656767E0,2.1129537E0,8.3549965E1,1.3494282E0],"tree_param":{"num_deleted":"0","num_feature":"210","num_nodes":"29","size_leaf_vector":"1"}},{"base_weights":[2.7820077E-2,-2.4809307E-1,5.576953E-1,2.7752468E-1,-3.6501494E-1,1.4609411E0,1.472072E-1,-2.2664353E-1,8.953528E-1,5.066456E-1,-4.0329993E-1,3.1457642E-1,2.2326493E0,1.1971521E0,-2.79055E-2,5.5366177E-2,-2.2129074E-2,-7.4231722E-3,8.090698E-2,8.291437E-2,-9.5761595E-3,-2.1803431E-2,1.1131241E-2,5.6346208E-2,-2.2630725E-2,-8.434858E-3,1.4457625E-1,1.2825685E-2,1.4257102E-1,-6.392979E-3,9.7518556E-2],"categories":[],"categories_nodes":[],"categories_segments":[],"categories_sizes":[],"default_left":[0,0,0,0,0,0,0,0,0,0,0,0,0,0,0,0,0,0,0,0,0,0,0,0,0,0,0,0,0,0,0],"id":25,"left_children":[1,3,5,7,9,11,13,15,17,19,21,23,25,27,29,-1,-1,-1,-1,-1,-1,-1,-1,-1,-1,-1,-1,-1,-1,-1,-1],"loss_changes":[3.723224E1,1.0389959E1,3.1969143E1,9.879452E0,4.779955E0,2.2990513E1,1.1396456E1,5.521249E0,1.1065673E1,5.381125E0,2.832121E0,8.123067E0,2.6015846E1,1.27255535E1,1.0610332E1,0E0,0E0,0E0,0E0,0E0,0E0,0E0,0E0,0E0,0E0,0E0,0E0,0E0,0E0,0E0,0E0],"parents":[2147483647,0,0,1,1,2,2,3,3,4,4,5,5,6,6,7,7,8,8,9,9,10,10,11,11,12,12,13,13,14,14],"right_children":[2,4,6,8,10,12,14,16,18,20,22,24,26,28,30,-1,-1,-1,-1,-1,-1,-1,-1,-1,-1,-1,-1,-1,-1,-1,-1],"split_conditions":[2.1015391E-1,9.9632144E-2,2.516498E-1,5.53816E-1,3.642304E-1,9.974962E-1,-3.552923E-1,7.525989E1,8.734507E-1,4.7599098E-1,1.1153196E2,-7.917555E1,5.4841423E-1,1.12869965E2,9.9581426E-1,5.5366177E-2,-2.2129074E-2,-7.4231722E-3,8.090698E-2,8.291437E-2,-9.5761595E-3,-2.1803431E-2,1.1131241E-2,5.6346208E-2,-2.2630725E-2,-8.434858E-3,1.4457625E-1,1.2825685E-2,1.4257102E-1,-6.392979E-3,9.7518556E-2],"split_indices":[202,208,208,112,199,201,86,179,129,132,185,71,145,161,81,0,0,0,0,0,0,0,0,0,0,0,0,0,0,0,0],"split_type":[0,0,0,0,0,0,0,0,0,0,0,0,0,0,0,0,0,0,0,0,0,0,0,0,0,0,0,0,0,0,0],"sum_hessian":[2.5250912E2,1.6627208E2,8.623704E1,2.9850677E1,1.364214E2,2.6069836E1,6.0167206E1,1.6696821E1,1.3153856E1,5.1151757E0,1.3130623E2,1.1107289E1,1.4962546E1,7.847796E0,5.231941E1,1.686614E0,1.5010207E1,5.6502547E0,7.503601E0,1.4656298E0,3.6495457E0,1.2521406E2,6.092173E0,5.2304378E0,5.8768516E0,3.3489852E0,1.1613561E1,5.7779117E0,2.0698843E0,5.0741566E1,1.577843E0],"tree_param":{"num_deleted":"0","num_feature":"210","num_nodes":"31","size_leaf_vector":"1"}},{"base_weights":[6.3236506E-4,-3.4551582E-1,2.1254835E-1,-1.1222513E-2,-4.549887E-1,-3.3062813E-1,4.519233E-1,6.2680393E-1,-1.8211268E-1,-4.8097652E-1,2.7310416E-2,1.297403E-1,-4.3153557E-1,8.374632E-1,-4.653277E-1,-1.727011E-2,7.294495E-2,2.5175577E-2,-2.2050949E-2,-2.5365403E-2,1.1036358E-2,-1.0658278E-2,5.9319463E-2,-0E0,-2.623727E-2,6.633895E-2,7.961048E-3,-2.615271E-2,1.3258256E-2],"categories":[],"categories_nodes":[],"categories_segments":[],"categories_sizes":[],"default_left":[0,0,0,0,0,0,0,0,0,0,0,0,0,0,0,0,0,0,0,0,0,0,0,0,0,0,0,0,0],"id":26,"left_children":[1,3,5,7,9,11,13,15,17,19,-1,21,23,25,27,-1,-1,-1,-1,-1,-1,-1,-1,-1,-1,-1,-1,-1,-1],"loss_changes":[1.8662594E1,3.4798336E0,2.071764E1,2.8016565E0,2.1411228E0,2.3536053E0,3.942819E1,4.9795637E0,3.883508E0,1.4569454E0,0E0,3.7437446E0,1.58637E0,2.5553833E1,1.5646348E0,0E0,0E0,0E0,0E0,0E0,0E0,0E0,0E0,0E0,0E0,0E0,0E0,0E0,0E0],"parents":[2147483647,0,0,1,1,2,2,3,3,4,4,5,5,6,6,7,7,8,8,9,9,11,11,12,12,13,13,14,14],"right_children":[2,4,6,8,10,12,14,16,18,20,-1,22,24,26,28,-1,-1,-1,-1,-1,-1,-1,-1,-1,-1,-1,-1,-1,-1],"split_conditions":[9.762314E-1,-4.9452803E-1,3.3169436E-1,6.511641E-1,1.3061948E2,3.4676012E-1,6.828915E-1,6.727679E-1,4.9029303E-1,8.0071634E-1,2.7310416E-2,8.852354E-1,3.0702228E-2,2.1134469E-1,6.45318E-1,-1.727011E-2,7.294495E-2,2.5175577E-2,-2.2050949E-2,-2.5365403E-2,1.1036358E-2,-1.0658278E-2,5.9319463E-2,-0E0,-2.623727E-2,6.633895E-2,7.961048E-3,-2.615271E-2,1.3258256E-2],"split_indices":[201,128,205,135,161,208,205,129,54,204,0,175,142,202,204,0,0,0,0,0,0,0,0,0,0,0,0,0,0],"split_type":[0,0,0,0,0,0,0,0,0,0,0,0,0,0,0,0,0,0,0,0,0,0,0,0,0,0,0,0,0],"sum_hessian":[2.5259718E2,9.550117E1,1.5709601E2,2.4056551E1,7.144462E1,4.7809765E1,1.0928625E2,4.3949084E0,1.9661644E1,7.024087E1,1.2037466E0,8.365811E0,3.944395E1,7.7082756E1,3.2203495E1,2.24113E0,2.153778E0,5.0246315E0,1.4637012E1,6.8104774E1,2.1360965E0,6.8473268E0,1.5184846E0,7.330798E0,3.2113155E1,4.4136776E1,3.2945976E1,3.0235065E1,1.968431E0],"tree_param":{"num_deleted":"0","num_feature":"210","num_nodes":"29","size_leaf_vector":"1"}},{"base_weights":[6.771913E-5,1.878441E0,-9.245738E-2,-8.493072E-2,2.5189202E0,6.146463E-1,-2.0329858E-1,1.2660346E-2,-1.6163714E-2,2.9415927E0,5.352288E-3,1.9536822E0,1.4399005E-1,-3.8181126E-1,3.4658E-1,1.152414E-2,1.6620457E-1,-1.7689597E-2,1.4542785E-1,1.15302436E-1,-6.5139607E-3,-2.3450686E-2,4.07765E-4,6.7902565E-2,-9.744539E-3],"categories":[],"categories_nodes":[],"categories_segments":[],"categories_sizes":[],"default_left":[0,0,0,0,0,0,0,0,0,0,0,0,0,0,0,0,0,0,0,0,0,0,0,0,0],"id":27,"left_children":[1,3,5,7,9,11,13,-1,-1,15,-1,17,19,21,23,-1,-1,-1,-1,-1,-1,-1,-1,-1,-1],"loss_changes":[4.4799915E1,1.5677807E1,1.9257887E1,4.036732E-1,8.756573E0,2.0481627E1,2.0981487E1,0E0,0E0,6.9182663E0,0E0,2.0056988E1,1.5792208E1,5.5225296E0,2.909731E1,0E0,0E0,0E0,0E0,0E0,0E0,0E0,0E0,0E0,0E0],"parents":[2147483647,0,0,1,1,2,2,3,3,4,4,5,5,6,6,9,9,11,11,12,12,13,13,14,14],"right_children":[2,4,6,8,10,12,14,-1,-1,16,-1,18,20,22,24,-1,-1,-1,-1,-1,-1,-1,-1,-1,-1],"split_conditions":[2.5114572E-1,7.662854E-1,4.3804976E-1,3.7113965E-1,9.9684525E-1,2.641025E-1,5.4209423E-1,1.2660346E-2,-1.6163714E-2,4.741583E-1,5.352288E-3,1.3344578E-1,3.1882286E-1,2.7202868E-1,5.236648E-1,1.152414E-2,1.6620457E-1,-1.7689597E-2,1.4542785E-1,1.15302436E-1,-6.5139607E-3,-2.3450686E-2,4.07765E-4,6.7902565E-2,-9.744539E-3],"split_indices":[109,165,132,172,207,64,102,0,0,198,0,202,109,202,150,0,0,0,0,0,0,0,0,0,0],"split_type":[0,0,0,0,0,0,0,0,0,0,0,0,0,0,0,0,0,0,0,0,0,0,0,0,0],"sum_hessian":[2.5474509E2,1.1103768E1,2.4364133E2,2.9061885E0,8.19758E0,3.2278084E1,2.1136324E2,1.0023016E0,1.9038868E0,6.753042E0,1.444538E0,7.519984E0,2.47581E1,1.5993079E2,5.1432453E1,1.065426E0,5.687616E0,2.3546607E0,5.1653233E0,1.9942337E0,2.2763866E1,1.307474E2,2.9183384E1,1.7471731E1,3.396072E1],"tree_param":{"num_deleted":"0","num_feature":"210","num_nodes":"25","size_leaf_vector":"1"}},{"base_weights":[2.7423311E-2,-3.4923708E-1,1.5763946E0,1.0269141E0,-4.1540864E-1,2.8586576E0,8.8005376E-1,2.3429673E0,-1.1636293E-1,-4.925247E-1,9.5340353E-1,-1.4968273E-2,3.2107599E0,1.4416214E0,-2.510961E-1,3.5632364E-3,1.60138E-1,-2.0674234E-2,2.8878171E-2,1.6105982E-2,-2.590461E-2,1.02537334E-1,-2.141898E-2,2.8783385E-2,1.7763431E-1,2.9716222E-2,1.3423583E-1,-2.403851E-2,2.2272404E-2],"categories":[],"categories_nodes":[],"categories_segments":[],"categories_sizes":[],"default_left":[0,0,0,0,0,0,0,0,0,0,0,0,0,0,0,0,0,0,0,0,0,0,0,0,0,0,0,0,0],"id":28,"left_children":[1,3,5,7,9,11,13,15,17,19,21,-1,23,25,27,-1,-1,-1,-1,-1,-1,-1,-1,-1,-1,-1,-1,-1,-1],"loss_changes":[1.4639221E2,1.8730165E1,4.093995E1,1.4745657E1,2.0817348E1,1.9911026E1,2.1638227E1,8.215841E0,1.455421E0,4.0111275E0,1.7076319E1,0E0,1.1247009E1,2.1737877E1,2.1122088E0,0E0,0E0,0E0,0E0,0E0,0E0,0E0,0E0,0E0,0E0,0E0,0E0,0E0,0E0],"parents":[2147483647,0,0,1,1,2,2,3,3,4,4,5,5,6,6,7,7,8,8,9,9,10,10,12,12,13,13,14,14],"right_children":[2,4,6,8,10,12,14,16,18,20,22,-1,24,26,28,-1,-1,-1,-1,-1,-1,-1,-1,-1,-1,-1,-1,-1,-1],"split_conditions":[7.052553E-1,-1.2887543E2,1.7210118E-1,3.2641733E-1,-4.8818752E1,1.7116131E-1,9.950364E-1,4.292259E-1,4.001773E-1,1.1453588E-1,1.6370425E-1,-1.4968273E-2,9.1420174E-1,9.479551E-1,9.838981E-1,3.5632364E-3,1.60138E-1,-2.0674234E-2,2.8878171E-2,1.6105982E-2,-2.590461E-2,1.02537334E-1,-2.141898E-2,2.8783385E-2,1.7763431E-1,2.9716222E-2,1.3423583E-1,-2.403851E-2,2.2272404E-2],"split_indices":[205,137,154,166,131,208,201,96,172,82,208,0,135,129,135,0,0,0,0,0,0,0,0,0,0,0,0,0,0],"split_type":[0,0,0,0,0,0,0,0,0,0,0,0,0,0,0,0,0,0,0,0,0,0,0,0,0,0,0,0,0],"sum_hessian":[2.4875992E2,2.006727E2,4.8087223E1,8.471112E0,1.9220158E2,1.5780206E1,3.230702E1,3.490844E0,4.9802685E0,1.8262604E2,9.575539E0,1.5694549E0,1.4210751E1,2.146466E1,1.0842357E1,1.2877107E0,2.2031333E0,3.8710341E0,1.1092341E0,5.0853124E0,1.7754073E2,5.107588E0,4.4679513E0,1.9739957E0,1.2236755E1,1.3691228E1,7.773433E0,8.494709E0,2.3476484E0],"tree_param":{"num_deleted":"0","num_feature":"210","num_nodes":"29","size_leaf_vector":"1"}},{"base_weights":[4.3742713E-3,5.047578E-1,-4.4376415E-1,-8.015512E-3,1.1389177E0,-4.7166225E-1,7.542186E-2,-4.121592E-1,6.798036E-1,2.0503933E0,3.540921E-1,-4.9806833E-1,1.8746672E-2,-2.3399027E-2,2.6886364E-2,-1.803973E-2,6.54375E-2,1.3917835E-1,-5.1266775E-3,-5.5044815E-3,1.0642071E-1,-2.6367819E-2,-0E0,7.429938E-2,-2.2318391E-2],"categories":[],"categories_nodes":[],"categories_segments":[],"categories_sizes":[],"default_left":[0,0,0,0,0,0,0,0,0,0,0,0,0,0,0,0,0,0,0,0,0,0,0,0,0],"id":29,"left_children":[1,3,5,7,9,11,-1,13,15,17,19,21,23,-1,-1,-1,-1,-1,-1,-1,-1,-1,-1,-1,-1],"loss_changes":[5.804359E1,3.9918457E1,8.038492E0,1.9315212E1,3.8241142E1,1.8097172E0,0E0,2.5728345E0,1.736441E1,4.0158447E1,2.5735983E1,1.8626938E0,6.0114903E0,0E0,0E0,0E0,0E0,0E0,0E0,0E0,0E0,0E0,0E0,0E0,0E0],"parents":[2147483647,0,0,1,1,2,2,3,3,4,4,5,5,7,7,8,8,9,9,10,10,11,11,12,12],"right_children":[2,4,6,8,10,12,-1,14,16,18,20,22,24,-1,-1,-1,-1,-1,-1,-1,-1,-1,-1,-1,-1],"split_conditions":[4.6875668E-1,3.8220876E-1,1.0966993E-1,5.533873E-1,9.883845E-1,4.0337017E-1,7.542186E-2,9.9960095E-1,1.9572861E-1,-4.1318858E-1,-7.624017E-2,4.296146E-1,4.9486968E-1,-2.3399027E-2,2.6886364E-2,-1.803973E-2,6.54375E-2,1.3917835E-1,-5.1266775E-3,-5.5044815E-3,1.0642071E-1,-2.6367819E-2,-0E0,7.429938E-2,-2.2318391E-2],"split_indices":[205,199,50,136,201,82,0,207,154,104,38,88,138,0,0,0,0,0,0,0,0,0,0,0,0],"split_type":[0,0,0,0,0,0,0,0,0,0,0,0,0,0,0,0,0,0,0,0,0,0,0,0,0],"sum_hessian":[2.5681848E2,1.2138211E2,1.3543636E2,6.7573074E1,5.3809036E1,1.3432637E2,1.109984E0,4.290779E1,2.4665283E1,2.4090733E1,2.9718304E1,1.27641785E2,6.684587E0,4.110482E1,1.8029735E0,9.392557E0,1.5272726E1,1.7786957E1,6.303776E0,2.4254627E1,5.463677E0,1.204475E2,7.1942797E0,1.1324134E0,5.5521736E0],"tree_param":{"num_deleted":"0","num_feature":"210","num_nodes":"25","size_leaf_vector":"1"}},{"base_weights":[7.983927E-3,-3.2395944E-1,3.6905327E-1,-3.8050997E-1,7.6567507E-1,-3.816326E-1,7.6945364E-1,-4.400835E-1,3.6147285E-1,-2.3053555E-2,1.0719285E-1,7.826523E-2,-2.6234804E-2,1.2342656E0,1.6947488E-1,2.8217703E-2,-2.4136981E-2,7.024479E-2,-1.472115E-2,3.6758434E-2,-1.9814096E-2,6.149738E-2,-1.7426368E-2,4.1485168E-2,1.266291E-1,4.2597204E-2,-1.2195556E-2],"categories":[],"categories_nodes":[],"categories_segments":[],"categories_sizes":[],"default_left":[0,0,0,0,0,0,0,0,0,0,0,0,0,0,0,0,0,0,0,0,0,0,0,0,0,0,0],"id":30,"left_children":[1,3,5,7,9,11,13,15,17,19,-1,21,-1,23,25,-1,-1,-1,-1,-1,-1,-1,-1,-1,-1,-1,-1],"loss_changes":[3.064153E1,8.451242E0,3.7174355E1,5.791275E0,7.6630964E0,2.9291883E0,2.2059341E1,5.335411E0,7.2870483E0,1.7499058E0,0E0,5.9032354E0,0E0,2.1211357E1,1.0518112E1,0E0,0E0,0E0,0E0,0E0,0E0,0E0,0E0,0E0,0E0,0E0,0E0],"parents":[2147483647,0,0,1,1,2,2,3,3,4,4,5,5,6,6,7,7,8,8,9,9,11,11,13,13,14,14],"right_children":[2,4,6,8,10,12,14,16,18,20,-1,22,-1,24,26,-1,-1,-1,-1,-1,-1,-1,-1,-1,-1,-1,-1],"split_conditions":[1.6330376E-1,5.831236E-1,3.8510635E-2,-2.0946349E-1,6.086273E-1,3.505647E-1,2.9547715E-1,-8.759803E1,9.522316E-1,-1.2047611E-1,1.0719285E-1,3.2988417E-1,-2.6234804E-2,5.36871E-1,2.6384664E-1,2.8217703E-2,-2.4136981E-2,7.024479E-2,-1.472115E-2,3.6758434E-2,-1.9814096E-2,6.149738E-2,-1.7426368E-2,4.1485168E-2,1.266291E-1,4.2597204E-2,-1.2195556E-2],"split_indices":[202,108,148,122,145,100,88,83,201,182,0,49,0,96,31,0,0,0,0,0,0,0,0,0,0,0,0],"split_type":[0,0,0,0,0,0,0,0,0,0,0,0,0,0,0,0,0,0,0,0,0,0,0,0,0,0,0],"sum_hessian":[2.5362073E2,1.3204921E2,1.2157152E2,1.2624009E2,5.80912E0,4.2217556E1,7.9353966E1,1.1735903E2,8.881061E0,4.273897E0,1.535223E0,9.958496E0,3.225906E1,4.4024055E1,3.532991E1,4.187189E0,1.1317184E2,3.0459564E0,5.835104E0,1.0015455E0,3.2723517E0,2.2471418E0,7.7113543E0,3.48734E1,9.150654E0,1.3018447E1,2.2311464E1],"tree_param":{"num_deleted":"0","num_feature":"210","num_nodes":"27","size_leaf_vector":"1"}},{"base_weights":[2.2543505E-2,9.6833867E-1,-7.081376E-2,-0E0,2.1603055E0,7.48498E-2,-4.230059E-1,-3.0535027E-1,7.387503E-2,2.566197E0,-1.3594352E-2,-1.7197174E-1,3.9983022E-1,-4.6586755E-1,3.7186E-2,-2.4003817E-2,1.3413538E-2,1.7197153E-1,5.061337E-2,1.6773557E-2,-1.4422096E-2,3.632582E-2,-8.827334E-3,1.0898235E-2,-2.4374709E-2],"categories":[],"categories_nodes":[],"categories_segments":[],"categories_sizes":[],"default_left":[0,0,0,0,0,0,0,0,0,0,0,0,0,0,0,0,0,0,0,0,0,0,0,0,0],"id":31,"left_children":[1,3,5,7,9,11,13,15,-1,17,-1,19,21,23,-1,-1,-1,-1,-1,-1,-1,-1,-1,-1,-1],"loss_changes":[2.2493473E1,2.6519943E1,1.1920492E1,6.536403E0,1.1077179E1,1.32550535E1,3.7170572E0,1.3659414E0,0E0,8.207233E0,0E0,5.6355057E0,1.3611298E1,1.1129246E0,0E0,0E0,0E0,0E0,0E0,0E0,0E0,0E0,0E0,0E0,0E0],"parents":[2147483647,0,0,1,1,2,2,3,3,4,4,5,5,6,6,7,7,9,9,11,11,12,12,13,13],"right_children":[2,4,6,8,10,12,14,16,-1,18,-1,20,22,24,-1,-1,-1,-1,-1,-1,-1,-1,-1,-1,-1],"split_conditions":[-1.4152777E2,-8.998319E1,2.9324448E-1,-8.723865E1,4.8821595E-1,-5.8039643E-2,6.9877185E-2,4.775435E-1,7.387503E-2,9.35084E-1,-1.3594352E-2,4.1487744E-1,3.3586645E-1,4.1458157E-1,3.7186E-2,-2.4003817E-2,1.3413538E-2,1.7197153E-1,5.061337E-2,1.6773557E-2,-1.4422096E-2,3.632582E-2,-8.827334E-3,1.0898235E-2,-2.4374709E-2],"split_indices":[209,203,188,107,84,44,80,84,0,193,0,168,208,114,0,0,0,0,0,0,0,0,0,0,0],"split_type":[0,0,0,0,0,0,0,0,0,0,0,0,0,0,0,0,0,0,0,0,0,0,0,0,0],"sum_hessian":[2.5195522E2,2.188983E1,2.300654E2,1.2608257E1,9.281571E0,1.6310864E2,6.695676E1,1.113222E1,1.4760376E0,7.9421773E0,1.3393947E0,9.279458E1,7.0314064E1,6.524624E1,1.710516E0,8.79167E0,2.3405504E0,4.2667437E0,3.6754334E0,1.6811317E1,7.598326E1,4.4822186E1,2.5491875E1,1.5801301E0,6.3666107E1],"tree_param":{"num_deleted":"0","num_feature":"210","num_nodes":"25","size_leaf_vector":"1"}},{"base_weights":[3.6375776E-2,-2.0518924E-1,1.0899848E0,4.145612E-1,-3.0674437E-1,3.703471E-1,1.9762211E0,-2.7755353E-1,1.3052531E0,2.3068582E-1,-4.3612003E-1,2.7271683E0,-3.9541745E-5,2.4840136E0,-2.0691252E-1,-2.2155738E-2,5.3574104E-2,-1.9056676E-2,9.1420464E-2,8.603305E-2,-3.200983E-3,3.0458185E-3,-2.396003E-2,1.6034645E-1,3.288912E-2,5.4263383E-2,-9.9695735E-3,-1.0671518E-3,1.6280621E-1,-1.8786794E-2,8.379385E-3],"categories":[],"categories_nodes":[],"categories_segments":[],"categories_sizes":[],"default_left":[0,0,0,0,0,0,0,0,0,0,0,0,0,0,0,0,0,0,0,0,0,0,0,0,0,0,0,0,0,0,0],"id":32,"left_children":[1,3,5,7,9,11,13,15,17,19,21,23,25,27,29,-1,-1,-1,-1,-1,-1,-1,-1,-1,-1,-1,-1,-1,-1,-1,-1],"loss_changes":[6.420298E1,1.3017214E1,2.9044064E1,1.8432201E1,1.2416105E1,2.4070381E1,2.3793533E1,4.24518E0,1.2295824E1,1.5562284E1,3.133358E0,1.216299E0,5.433431E0,3.3247353E1,3.8788638E-1,0E0,0E0,0E0,0E0,0E0,0E0,0E0,0E0,0E0,0E0,0E0,0E0,0E0,0E0,0E0,0E0],"parents":[2147483647,0,0,1,1,2,2,3,3,4,4,5,5,6,6,7,7,8,8,9,9,10,10,11,11,12,12,13,13,14,14],"right_children":[2,4,6,8,10,12,14,16,18,20,22,24,26,28,30,-1,-1,-1,-1,-1,-1,-1,-1,-1,-1,-1,-1,-1,-1,-1,-1],"split_conditions":[2.760115E-1,6.1696595E-1,5.0972547E-2,-1.0725866E2,4.669724E-1,6.2462795E-1,-8.0391495E1,5.129515E-1,3.8608715E-1,3.2274067E-1,9.9958116E-1,3.9155683E-1,6.984438E-1,-1.0175703E2,-7.157613E1,-2.2155738E-2,5.3574104E-2,-1.9056676E-2,9.1420464E-2,8.603305E-2,-3.200983E-3,3.0458185E-3,-2.396003E-2,1.6034645E-1,3.288912E-2,5.4263383E-2,-9.9695735E-3,-1.0671518E-3,1.6280621E-1,-1.8786794E-2,8.379385E-3],"split_indices":[202,153,142,89,90,153,107,208,199,103,69,106,195,113,101,0,0,0,0,0,0,0,0,0,0,0,0,0,0,0,0],"split_type":[0,0,0,0,0,0,0,0,0,0,0,0,0,0,0,0,0,0,0,0,0,0,0,0,0,0,0,0,0,0,0],"sum_hessian":[2.5002974E2,2.0397414E2,4.6055603E1,2.8145645E1,1.7582849E2,2.6261545E1,1.9794058E1,1.6162579E1,1.1983067E1,3.3812866E1,1.4201562E2,2.7391176E0,2.3522427E1,1.5984159E1,3.8098977E0,1.5059991E1,1.1025876E0,2.856264E0,9.126802E0,4.840575E0,2.8972292E1,1.1109221E1,1.309064E2,1.7381303E0,1.0009874E0,2.8827302E0,2.0639698E1,3.9641306E0,1.2020029E1,2.8078516E0,1.0020462E0],"tree_param":{"num_deleted":"0","num_feature":"210","num_nodes":"31","size_leaf_vector":"1"}},{"base_weights":[8.118957E-4,-3.775802E-1,1.705267E0,-4.333213E-1,2.0855725E0,2.0002882E0,-1.5460312E-1,-4.8553938E-1,1.5824053E0,1.3107802E-1,8.450338E-3,2.430098E0,6.630583E-1,3.4092557E-2,-2.2036582E-2,1.2979153E-2,-2.6140172E-2,1.3079713E-1,-1.5619108E-2,1.356554E-1,-5.416239E-3,-1.9897645E-2,5.8157124E-2],"categories":[],"categories_nodes":[],"categories_segments":[],"categories_sizes":[],"default_left":[0,0,0,0,0,0,0,0,0,0,0,0,0,0,0,0,0,0,0,0,0,0,0],"id":33,"left_children":[1,3,5,7,9,11,13,15,17,-1,-1,19,21,-1,-1,-1,-1,-1,-1,-1,-1,-1,-1],"loss_changes":[1.6300713E2,2.9106121E1,2.569374E1,2.2016167E1,4.1105976E0,2.092987E1,1.9923115E0,5.676361E0,1.1446475E1,0E0,0E0,2.1858337E1,6.4301643E0,0E0,0E0,0E0,0E0,0E0,0E0,0E0,0E0,0E0,0E0],"parents":[2147483647,0,0,1,1,2,2,3,3,4,4,5,5,6,6,7,7,8,8,11,11,12,12],"right_children":[2,4,6,8,10,12,14,16,18,-1,-1,20,22,-1,-1,-1,-1,-1,-1,-1,-1,-1,-1],"split_conditions":[7.3013675E-1,-7.8516555E0,1.17814265E-1,2.4051147E1,9.9996436E-1,-6.6459954E-2,-1.7778397E2,2.008854E-1,3.330153E-1,1.3107802E-1,8.450338E-3,9.99985E-1,7.6230234E-1,3.4092557E-2,-2.2036582E-2,1.2979153E-2,-2.6140172E-2,1.3079713E-1,-1.5619108E-2,1.356554E-1,-5.416239E-3,-1.9897645E-2,5.8157124E-2],"split_indices":[205,131,202,113,75,80,149,130,172,0,0,57,177,0,0,0,0,0,0,0,0,0,0],"split_type":[0,0,0,0,0,0,0,0,0,0,0,0,0,0,0,0,0,0,0,0,0,0,0],"sum_hessian":[2.5053873E2,2.0561224E2,4.4926483E1,2.0190776E2,3.7044916E0,3.8756947E1,6.1695366E0,1.9759766E2,4.3100996E0,2.566675E0,1.1378167E0,2.8654749E1,1.0102197E1,1.1309258E0,5.038611E0,8.999357E0,1.885983E2,2.5767524E0,1.7333472E0,2.5754E1,2.9007494E0,3.237522E0,6.864675E0],"tree_param":{"num_deleted":"0","num_feature":"210","num_nodes":"23","size_leaf_vector":"1"}},{"base_weights":[1.2983019E-2,5.856605E-1,-2.504049E-1,8.461006E-1,-2.2415738E-1,-4.505947E-1,9.7093344E-2,1.5620035E0,5.1650226E-1,3.9177258E-2,-3.5405877E-1,2.5989333E-1,-4.83241E-1,1.3226604E0,-7.514025E-2,1.430637E-1,3.8078602E-2,6.357797E-2,-1.089829E-2,2.4652345E-2,-2.2584055E-2,7.443909E-2,-1.9586435E-2,-2.5490811E-2,1.9970095E-2,-1.843897E-2,1.128035E-1,-2.1061106E-2,1.31530585E-2],"categories":[],"categories_nodes":[],"categories_segments":[],"categories_sizes":[],"default_left":[0,0,0,0,0,0,0,0,0,0,0,0,0,0,0,0,0,0,0,0,0,0,0,0,0,0,0,0,0],"id":34,"left_children":[1,3,5,7,9,11,13,15,17,-1,19,21,23,25,27,-1,-1,-1,-1,-1,-1,-1,-1,-1,-1,-1,-1,-1,-1],"loss_changes":[3.7891495E1,1.6952042E1,1.2032758E1,1.3194065E1,2.8479977E0,2.6850834E0,1.3617014E1,1.6587769E1,2.4130463E1,0E0,1.7453341E0,4.953836E0,2.6790829E0,1.3561528E1,6.740262E0,0E0,0E0,0E0,0E0,0E0,0E0,0E0,0E0,0E0,0E0,0E0,0E0,0E0,0E0],"parents":[2147483647,0,0,1,1,2,2,3,3,4,4,5,5,6,6,7,7,8,8,10,10,11,11,12,12,13,13,14,14],"right_children":[2,4,6,8,10,12,14,16,18,-1,20,22,24,26,28,-1,-1,-1,-1,-1,-1,-1,-1,-1,-1,-1,-1,-1,-1],"split_conditions":[3.6237094E-1,9.5579237E-1,-4.922531E-2,3.7804164E-2,3.9941192E-1,9.8921007E-1,3.3726335E-1,3.5444987E-1,2.2781841E-1,3.9177258E-2,9.544011E-1,8.7765E-3,1.1480506E2,2.289136E-1,8.445803E-1,1.430637E-1,3.8078602E-2,6.357797E-2,-1.089829E-2,2.4652345E-2,-2.2584055E-2,7.443909E-2,-1.9586435E-2,-2.5490811E-2,1.9970095E-2,-1.843897E-2,1.128035E-1,-2.1061106E-2,1.31530585E-2],"split_indices":[205,93,50,142,114,9,133,133,202,0,81,140,185,19,159,0,0,0,0,0,0,0,0,0,0,0,0,0,0],"split_type":[0,0,0,0,0,0,0,0,0,0,0,0,0,0,0,0,0,0,0,0,0,0,0,0,0,0,0,0,0],"sum_hessian":[2.4901483E2,7.8181946E1,1.7083287E2,5.921643E1,1.8965519E1,1.08384735E2,6.244814E1,1.7393793E1,4.1822636E1,1.5031626E0,1.7462357E1,4.3210382E0,1.040637E2,6.943222E0,5.5504917E1,5.6016035E0,1.1792189E1,2.0328827E1,2.149381E1,1.2800412E0,1.6182314E1,1.1052977E0,3.2157407E0,1.0154209E2,2.5216076E0,2.6460564E0,4.297166E0,2.7457666E1,2.804725E1],"tree_param":{"num_deleted":"0","num_feature":"210","num_nodes":"29","size_leaf_vector":"1"}},{"base_weights":[-7.7538434E-3,-2.6689002E-1,4.9991995E-1,-3.9718798E-1,5.3433233E-1,2.7431712E-1,1.6239723E0,6.317676E-2,-4.219143E-1,-4.2224452E-1,1.5260941E0,-4.23582E-2,9.290708E-1,2.328416E0,-2.0104913E-2,-2.2021083E-2,4.0234458E-2,6.9142976E-3,-2.4538498E-2,-1.985298E-2,1.14297025E-1,-1.5174815E-2,2.3511933E-2,7.1167074E-2,-1.6727276E-2,1.4438735E-1,-1.5459257E-2],"categories":[],"categories_nodes":[],"categories_segments":[],"categories_sizes":[],"default_left":[0,0,0,0,0,0,0,0,0,0,0,0,0,0,0,0,0,0,0,0,0,0,0,0,0,0,0],"id":35,"left_children":[1,3,5,7,9,11,13,-1,15,17,19,21,23,25,-1,-1,-1,-1,-1,-1,-1,-1,-1,-1,-1,-1,-1],"loss_changes":[3.344542E1,1.7793947E1,2.1135038E1,6.429779E0,2.3423098E1,1.521772E1,2.1214317E1,0E0,3.594221E0,5.984118E-1,1.8631264E1,6.806291E0,1.5493963E1,1.6827225E1,0E0,0E0,0E0,0E0,0E0,0E0,0E0,0E0,0E0,0E0,0E0,0E0,0E0],"parents":[2147483647,0,0,1,1,2,2,3,3,4,4,5,5,6,6,8,8,9,9,10,10,11,11,12,12,13,13],"right_children":[2,4,6,8,10,12,14,-1,16,18,20,22,24,26,-1,-1,-1,-1,-1,-1,-1,-1,-1,-1,-1,-1,-1],"split_conditions":[4.7613925E-1,4.849505E-1,9.9405223E-1,1.087741E-1,1.10290885E-1,3.0394062E-1,9.6943337E-1,6.317676E-2,-9.009935E0,7.401874E1,-9.925705E1,5.434037E-1,3.3586645E-1,-7.208984E-2,-2.0104913E-2,-2.2021083E-2,4.0234458E-2,6.9142976E-3,-2.4538498E-2,-1.985298E-2,1.14297025E-1,-1.5174815E-2,2.3511933E-2,7.1167074E-2,-1.6727276E-2,1.4438735E-1,-1.5459257E-2],"split_indices":[109,103,159,1,194,46,87,0,203,167,203,103,208,50,0,0,0,0,0,0,0,0,0,0,0,0,0],"split_type":[0,0,0,0,0,0,0,0,0,0,0,0,0,0,0,0,0,0,0,0,0,0,0,0,0,0,0],"sum_hessian":[2.5239125E2,1.6754243E2,8.484882E1,1.4464824E2,2.289419E1,7.1776024E1,1.3072794E1,1.3277247E0,1.4332053E2,1.18948E1,1.0999389E1,4.8905285E1,2.287074E1,9.626046E0,3.446748E0,1.4190193E2,1.418589E0,1.02588E0,1.086892E1,3.213057E0,7.786332E0,3.2799084E1,1.6106203E1,1.6406126E1,6.4646153E0,7.8949213E0,1.7311246E0],"tree_param":{"num_deleted":"0","num_feature":"210","num_nodes":"27","size_leaf_vector":"1"}},{"base_weights":[-6.4427145E-3,9.0727204E-1,-7.943665E-2,-3.0307052E-1,1.4773718E0,9.117932E-2,-4.2226407E-1,8.198343E-3,-2.1591319E-2,2.1206577E0,-6.6536404E-3,-2.0344386E-1,6.413527E-1,-1.3581955E-1,-5.0097334E-1,-3.870447E-4,1.3754936E-1,-1.8855153E-2,3.256507E-2,-1.4594485E-2,4.4117145E-2,-2.1807353E-3,5.8367368E-2,2.9920204E-2,-2.4698762E-2,8.72619E-4,-2.6640197E-2],"categories":[],"categories_nodes":[],"categories_segments":[],"categories_sizes":[],"default_left":[0,0,0,0,0,0,0,0,0,0,0,0,0,0,0,0,0,0,0,0,0,0,0,0,0,0,0],"id":36,"left_children":[1,3,5,7,9,11,13,-1,-1,15,17,19,21,23,25,-1,-1,-1,-1,-1,-1,-1,-1,-1,-1,-1,-1],"loss_changes":[1.6649343E1,1.33015585E1,1.36612625E1,4.9952024E-1,1.2420412E1,2.5421644E1,1.6173048E0,0E0,0E0,1.2318272E1,1.39123E0,1.000139E1,1.986382E1,5.1151843E0,1.0543909E0,0E0,0E0,0E0,0E0,0E0,0E0,0E0,0E0,0E0,0E0,0E0,0E0],"parents":[2147483647,0,0,1,1,2,2,3,3,4,4,5,5,6,6,9,9,10,10,11,11,12,12,13,13,14,14],"right_children":[2,4,6,8,10,12,14,-1,-1,16,18,20,22,24,26,-1,-1,-1,-1,-1,-1,-1,-1,-1,-1,-1,-1],"split_conditions":[9.950859E-1,4.4273952E-1,4.715414E-1,3.4511793E-1,-6.368038E1,5.850372E-1,9.343597E1,8.198343E-3,-2.1591319E-2,8.787606E-1,4.5544004E-1,5.1656616E-1,-9.610692E1,4.9177733E-1,-6.924521E-1,-3.870447E-4,1.3754936E-1,-1.8855153E-2,3.256507E-2,-1.4594485E-2,4.4117145E-2,-2.1807353E-3,5.8367368E-2,2.9920204E-2,-2.4698762E-2,8.72619E-4,-2.6640197E-2],"split_indices":[57,204,91,192,83,145,185,0,0,159,84,192,107,199,98,0,0,0,0,0,0,0,0,0,0,0,0],"split_type":[0,0,0,0,0,0,0,0,0,0,0,0,0,0,0,0,0,0,0,0,0,0,0,0,0,0,0],"sum_hessian":[2.4879228E2,1.7458092E1,2.3133418E2,5.6839147E0,1.1774177E1,1.5475777E2,7.657642E1,1.0013984E0,4.6825166E0,7.961479E0,3.8126974E0,1.0107799E2,5.367978E1,1.7367485E1,5.920894E1,2.0085137E0,5.9529653E0,2.8096294E0,1.003068E0,9.422582E1,6.852161E0,2.3632164E1,3.0047613E1,5.382759E0,1.1984725E1,3.2694502E0,5.593949E1],"tree_param":{"num_deleted":"0","num_feature":"210","num_nodes":"27","size_leaf_vector":"1"}},{"base_weights":[-1.918894E-2,-2.8948295E-1,4.116069E-1,-4.194867E-1,1.16742745E-1,5.1860423E-3,1.1049973E0,5.2205807E-1,-4.588157E-1,1.9062456E0,-1.24037996E-1,-2.9884252E-1,6.5976876E-1,1.6426668E0,-2.2123627E-1,8.2577966E-2,-7.0490367E-3,2.9756108E-2,-2.3783533E-2,1.4856389E-1,-0E0,-1.7950682E-2,5.7924915E-2,-2.326445E-2,1.178083E-2,3.197666E-3,8.323526E-2,9.634688E-2,-1.903901E-2,3.8692757E-2,-2.3948578E-2],"categories":[],"categories_nodes":[],"categories_segments":[],"categories_sizes":[],"default_left":[0,0,0,0,0,0,0,0,0,0,0,0,0,0,0,0,0,0,0,0,0,0,0,0,0,0,0,0,0,0,0],"id":37,"left_children":[1,3,5,7,9,11,13,15,17,19,21,23,25,27,29,-1,-1,-1,-1,-1,-1,-1,-1,-1,-1,-1,-1,-1,-1,-1,-1],"loss_changes":[2.9417246E1,8.286119E0,2.7307625E1,4.6075535E0,1.6904951E1,1.2661471E1,2.6080803E1,4.2050476E0,2.2967339E0,9.235357E0,1.0769889E1,3.9780493E0,1.1828894E1,1.5666779E1,3.2068992E0,0E0,0E0,0E0,0E0,0E0,0E0,0E0,0E0,0E0,0E0,0E0,0E0,0E0,0E0,0E0,0E0],"parents":[2147483647,0,0,1,1,2,2,3,3,4,4,5,5,6,6,7,7,8,8,9,9,10,10,11,11,12,12,13,13,14,14],"right_children":[2,4,6,8,10,12,14,16,18,20,22,24,26,28,30,-1,-1,-1,-1,-1,-1,-1,-1,-1,-1,-1,-1,-1,-1,-1,-1],"split_conditions":[2.8360972E-1,2.3044135E-1,8.6497116E-1,4.074906E-1,2.950337E-1,9.9740237E-1,9.506066E-1,1.6023189E-1,1.7173363E-1,2.6537672E-1,3.4151474E-1,9.0438795E-1,5.5577826E-1,4.9009472E-1,4.325533E-1,8.2577966E-2,-7.0490367E-3,2.9756108E-2,-2.3783533E-2,1.4856389E-1,-0E0,-1.7950682E-2,5.7924915E-2,-2.326445E-2,1.178083E-2,3.197666E-3,8.323526E-2,9.634688E-2,-1.903901E-2,3.8692757E-2,-2.3948578E-2],"split_indices":[88,202,177,102,190,201,187,160,177,202,46,129,198,115,96,0,0,0,0,0,0,0,0,0,0,0,0,0,0,0,0],"split_type":[0,0,0,0,0,0,0,0,0,0,0,0,0,0,0,0,0,0,0,0,0,0,0,0,0,0,0,0,0,0,0],"sum_hessian":[2.5071693E2,1.5440121E2,9.631572E1,1.1712986E2,3.727136E1,6.1449604E1,3.486611E1,4.1023307E0,1.1302753E2,3.6491263E0,3.3622234E1,4.2227325E1,1.922228E1,2.4692364E1,1.0173749E1,1.0217254E0,3.080605E0,1.1457031E0,1.1188183E2,1.9596481E0,1.6894782E0,2.9090551E1,4.531683E0,3.2440815E1,9.786508E0,1.2797772E1,6.4245076E0,2.1735847E1,2.9565163E0,1.6011903E0,8.572558E0],"tree_param":{"num_deleted":"0","num_feature":"210","num_nodes":"31","size_leaf_vector":"1"}},{"base_weights":[2.8506962E-3,-1.1973749E-1,7.982109E-1,-3.5336614E-1,5.6306504E-2,1.1698097E0,-3.641777E-1,5.1076704E-1,-3.8905072E-1,-3.1911296E-1,3.0076343E-1,1.7908742E0,5.0383907E-2,8.198287E-3,-2.3175932E-2,7.386952E-2,-1.6373761E-2,-2.1318823E-2,1.8033212E-2,-2.0988183E-2,1.6907552E-2,3.2553095E-2,-1.5901491E-2,-1.8423295E-2,1.1158072E-1,-2.2586968E-2,3.674532E-2],"categories":[],"categories_nodes":[],"categories_segments":[],"categories_sizes":[],"default_left":[0,0,0,0,0,0,0,0,0,0,0,0,0,0,0,0,0,0,0,0,0,0,0,0,0,0,0],"id":38,"left_children":[1,3,5,7,9,11,13,15,17,19,21,23,25,-1,-1,-1,-1,-1,-1,-1,-1,-1,-1,-1,-1,-1,-1],"loss_changes":[2.5129875E1,9.205978E0,1.5380655E1,3.148306E0,1.1802472E1,1.807721E1,5.802065E-1,3.9454105E0,2.7605314E0,3.499886E0,1.7135239E1,1.7083649E1,3.9711742E0,0E0,0E0,0E0,0E0,0E0,0E0,0E0,0E0,0E0,0E0,0E0,0E0,0E0,0E0],"parents":[2147483647,0,0,1,1,2,2,3,3,4,4,5,5,6,6,7,7,8,8,9,9,10,10,11,11,12,12],"right_children":[2,4,6,8,10,12,14,16,18,20,22,24,26,-1,-1,-1,-1,-1,-1,-1,-1,-1,-1,-1,-1,-1,-1],"split_conditions":[9.988501E-1,-7.8631856E-2,2.1810982E-1,1.5653336E-1,9.664904E-1,-3.3114295E-2,7.041771E-1,2.070036E-1,1.22183044E2,3.9849866E-2,2.3102337E-1,9.129542E-2,4.0057167E-1,8.198287E-3,-2.3175932E-2,7.386952E-2,-1.6373761E-2,-2.1318823E-2,1.8033212E-2,-2.0988183E-2,1.6907552E-2,3.2553095E-2,-1.5901491E-2,-1.8423295E-2,1.1158072E-1,-2.2586968E-2,3.674532E-2],"split_indices":[207,44,202,55,201,44,171,154,161,146,202,202,196,0,0,0,0,0,0,0,0,0,0,0,0,0,0],"split_type":[0,0,0,0,0,0,0,0,0,0,0,0,0,0,0,0,0,0,0,0,0,0,0,0,0,0,0],"sum_hessian":[2.5506151E2,2.2162617E2,3.3435326E1,9.504817E1,1.26578E2,2.5396181E1,8.039146E0,3.130269E0,9.19179E1,4.9636044E1,7.6941956E1,1.5890747E1,9.505433E0,1.0103701E0,7.028776E0,1.1550863E0,1.9751828E0,8.809654E1,3.8213594E0,4.3489704E1,6.1463413E0,4.919957E1,2.774239E1,2.6829805E0,1.3207767E1,5.5951543E0,3.910279E0],"tree_param":{"num_deleted":"0","num_feature":"210","num_nodes":"27","size_leaf_vector":"1"}},{"base_weights":[-5.6239538E-2,1.7630593E0,-1.2684943E-1,-1.6488563E-2,2.3989692E0,-2.7272385E-1,4.4851992E-1,2.873098E0,6.8626055E-3,3.1304127E-1,-4.740684E-1,1.1579838E0,-2.1014726E-2,4.0648416E-2,1.558197E-1,5.4876447E-2,-1.0767837E-2,-2.6070697E-2,8.375703E-3,8.464758E-2,-2.1463474E-2,7.9521716E-2,-1.1329249E-2],"categories":[],"categories_nodes":[],"categories_segments":[],"categories_sizes":[],"default_left":[0,0,0,0,0,0,0,0,0,0,0,0,0,0,0,0,0,0,0,0,0,0,0],"id":39,"left_children":[1,3,5,-1,7,9,11,13,-1,15,17,19,21,-1,-1,-1,-1,-1,-1,-1,-1,-1,-1],"loss_changes":[3.1561888E1,1.32102375E1,2.0000736E1,0E0,7.0204544E0,2.2557432E1,1.6188904E1,1.1493683E-2,0E0,2.0654152E1,4.43075E0,1.723431E1,1.0126186E1,0E0,0E0,0E0,0E0,0E0,0E0,0E0,0E0,0E0,0E0],"parents":[2147483647,0,0,1,1,2,2,4,4,5,5,6,6,7,7,9,9,10,10,11,11,12,12],"right_children":[2,4,6,-1,8,10,12,14,-1,16,18,20,22,-1,-1,-1,-1,-1,-1,-1,-1,-1,-1],"split_conditions":[2.3463199E-1,5.36618E-1,2.5668907E-1,-1.6488563E-2,-1.8158549E-1,8.9574605E-3,3.1448475E-1,6.4549685E-1,6.8626055E-3,-5.3609264E-1,5.8596957E-1,4.8452258E-1,3.6123836E-1,4.0648416E-2,1.558197E-1,5.4876447E-2,-1.0767837E-2,-2.6070697E-2,8.375703E-3,8.464758E-2,-2.1463474E-2,7.9521716E-2,-1.1329249E-2],"split_indices":[109,177,202,0,2,201,40,157,0,110,126,109,168,0,0,0,0,0,0,0,0,0,0],"split_type":[0,0,0,0,0,0,0,0,0,0,0,0,0,0,0,0,0,0,0,0,0,0,0],"sum_hessian":[2.442261E2,8.17623E0,2.3604988E2,1.9809453E0,6.1952853E0,1.888661E2,4.7183765E1,4.861605E0,1.33368E0,4.804345E1,1.4082266E2,1.8291765E1,2.8892002E1,1.0154762E0,3.8461292E0,1.8978752E1,2.9064697E1,1.3146442E2,9.358243E0,1.3678105E1,4.6136584E0,2.451527E0,2.6440475E1],"tree_param":{"num_deleted":"0","num_feature":"210","num_nodes":"23","size_leaf_vector":"1"}},{"base_weights":[2.2619003E-2,-3.51832E-1,1.4944886E0,9.5462507E-1,-4.3237576E-1,7.6823354E-1,2.2355142E0,1.7776601E0,-2.0973112E-2,-4.7686598E-1,1.4559146E0,4.8225284E-1,1.2167298E-1,2.6003597E0,-1.6659698E-1,1.5272589E-1,-1.8581413E-2,4.301369E-2,-2.5617113E-2,-1.2849867E-2,1.1037284E-1,1.0483681E-2,1.00592606E-1,1.5180573E-1,2.5559664E-2,-1.7366087E-2,7.5184456E-3],"categories":[],"categories_nodes":[],"categories_segments":[],"categories_sizes":[],"default_left":[0,0,0,0,0,0,0,0,0,0,0,0,0,0,0,0,0,0,0,0,0,0,0,0,0,0,0],"id":40,"left_children":[1,3,5,7,9,11,13,15,-1,17,19,21,-1,23,25,-1,-1,-1,-1,-1,-1,-1,-1,-1,-1,-1,-1],"loss_changes":[1.3838097E2,2.1404669E1,2.5391693E1,1.4286339E1,1.648568E1,1.1542116E1,2.2251083E1,2.2395817E1,0E0,9.209587E0,6.617935E0,9.616224E0,0E0,1.7636536E1,3.0962712E-1,0E0,0E0,0E0,0E0,0E0,0E0,0E0,0E0,0E0,0E0,0E0,0E0],"parents":[2147483647,0,0,1,1,2,2,3,3,4,4,5,5,6,6,7,7,9,9,10,10,11,11,13,13,14,14],"right_children":[2,4,6,8,10,12,14,16,-1,18,20,22,-1,24,26,-1,-1,-1,-1,-1,-1,-1,-1,-1,-1,-1,-1],"split_conditions":[7.052553E-1,1.9824308E-1,9.6478635E-1,-3.533718E-2,-6.6927366E0,9.633434E-2,7.104925E-2,3.199298E-1,-2.0973112E-2,-1.4993895E2,4.7916958E-1,9.894867E-1,1.2167298E-1,5.367574E-1,5.32924E-1,1.5272589E-1,-1.8581413E-2,4.301369E-2,-2.5617113E-2,-1.2849867E-2,1.1037284E-1,1.0483681E-2,1.00592606E-1,1.5180573E-1,2.5559664E-2,-1.7366087E-2,7.5184456E-3],"split_indices":[205,130,135,50,125,148,148,184,0,113,168,93,0,132,204,0,0,0,0,0,0,0,0,0,0,0,0],"split_type":[0,0,0,0,0,0,0,0,0,0,0,0,0,0,0,0,0,0,0,0,0,0,0,0,0,0,0],"sum_hessian":[2.4891858E2,1.9898805E2,4.9930534E1,1.0853031E1,1.8813501E2,2.6313345E1,2.361719E1,6.649351E0,4.2036796E0,1.8458638E2,3.5486393E0,2.3608541E1,2.7048035E0,2.0467566E1,3.1496246E0,3.9362435E0,2.7131078E0,4.0970297E0,1.8048935E2,1.2422615E0,2.3063776E0,2.1058336E1,2.5502052E0,1.6520596E1,3.94697E0,2.1458464E0,1.0037783E0],"tree_param":{"num_deleted":"0","num_feature":"210","num_nodes":"27","size_leaf_vector":"1"}},{"base_weights":[-2.2960814E-2,3.1862953E-1,-3.625521E-1,-1.9055629E-1,7.3606235E-1,-5.0168186E-1,6.416927E-1,-3.192699E-1,5.330535E-1,1.4037085E0,1.2690736E-1,-5.2459586E-1,2.927415E-1,1.4203637E0,-5.0595865E-2,-1.9726934E-2,6.497734E-2,1.00616746E-1,-4.486687E-3,9.1013074E-2,-1.4129524E-2,7.7898555E-2,-9.684275E-3,1.4915972E-2,-2.6824785E-2,4.8452508E-2,-1.4904846E-2,1.0795381E-1,-1.6756682E-2,5.8662243E-2,-2.3010751E-2],"categories":[],"categories_nodes":[],"categories_segments":[],"categories_sizes":[],"default_left":[0,0,0,0,0,0,0,0,0,0,0,0,0,0,0,0,0,0,0,0,0,0,0,0,0,0,0,0,0,0,0],"id":41,"left_children":[1,3,5,7,9,11,13,15,17,19,21,23,25,27,29,-1,-1,-1,-1,-1,-1,-1,-1,-1,-1,-1,-1,-1,-1,-1,-1],"loss_changes":[2.902279E1,2.6678658E1,1.7851261E1,5.440707E0,2.7642628E1,2.1960697E0,8.63439E0,6.390253E0,8.514683E0,2.3594185E1,1.747964E1,1.2444077E0,1.8062409E0,1.05780945E1,5.066405E0,0E0,0E0,0E0,0E0,0E0,0E0,0E0,0E0,0E0,0E0,0E0,0E0,0E0,0E0,0E0,0E0],"parents":[2147483647,0,0,1,1,2,2,3,3,4,4,5,5,6,6,7,7,8,8,9,9,10,10,11,11,12,12,13,13,14,14],"right_children":[2,4,6,8,10,12,14,16,18,20,22,24,26,28,30,-1,-1,-1,-1,-1,-1,-1,-1,-1,-1,-1,-1,-1,-1,-1,-1],"split_conditions":[-4.2598274E-1,3.0522078E-1,-7.705372E-2,-1.051131E2,9.8877573E-1,9.988613E-1,1.6856304E-1,8.06567E-2,-1.0442953E2,2.9541767E-1,3.1273398E-1,1.1572128E-1,1.03993E2,-8.840216E1,-1.0592561E2,-1.9726934E-2,6.497734E-2,1.00616746E-1,-4.486687E-3,9.1013074E-2,-1.4129524E-2,7.7898555E-2,-9.684275E-3,1.4915972E-2,-2.6824785E-2,4.8452508E-2,-1.4904846E-2,1.0795381E-1,-1.6756682E-2,5.8662243E-2,-2.3010751E-2],"split_indices":[104,208,32,89,201,171,76,68,203,202,97,7,161,119,77,0,0,0,0,0,0,0,0,0,0,0,0,0,0,0,0],"split_type":[0,0,0,0,0,0,0,0,0,0,0,0,0,0,0,0,0,0,0,0,0,0,0,0,0,0,0,0,0,0,0],"sum_hessian":[2.481604E2,1.2360004E2,1.2456037E2,5.5817554E1,6.778248E1,1.09930435E2,1.4629931E1,4.7979992E1,7.8375635E0,3.1638037E1,3.6144444E1,1.07301025E2,2.629415E0,6.4584093E0,8.171522E0,4.6629932E1,1.3500599E0,1.7085963E0,6.1289673E0,2.5354721E1,6.283315E0,5.9659367E0,3.0178507E1,1.0666358E0,1.0623439E2,1.0064719E0,1.6229432E0,4.4239025E0,2.0345066E0,1.5204452E0,6.651077E0],"tree_param":{"num_deleted":"0","num_feature":"210","num_nodes":"31","size_leaf_vector":"1"}},{"base_weights":[3.0830279E-2,-1.2184814E-1,8.632273E-1,7.108873E-1,-2.867844E-1,1.6581049E0,5.258692E-2,4.2071134E-2,1.2635216E0,7.315219E-1,-3.2247528E-1,2.2111392E0,-2.0688863E-2,7.126502E-2,-1.1832753E-1,4.980575E-2,-1.3246852E-2,6.9746203E-3,9.808137E-2,-1.866949E-2,8.7984644E-2,-1.9135056E-2,4.118007E-3,4.1992128E-2,1.5121576E-1,4.216341E-2,-1.5707849E-2],"categories":[],"categories_nodes":[],"categories_segments":[],"categories_sizes":[],"default_left":[0,0,0,0,0,0,0,0,0,0,0,0,0,0,0,0,0,0,0,0,0,0,0,0,0,0,0],"id":42,"left_children":[1,3,5,7,9,11,13,15,17,19,21,23,-1,-1,25,-1,-1,-1,-1,-1,-1,-1,-1,-1,-1,-1,-1],"loss_changes":[3.1710033E1,2.9062397E1,2.4664627E1,1.2743137E1,6.6078157E0,2.3362667E1,5.0490284E0,5.2987657E0,1.4452187E1,7.823198E0,4.237152E0,1.4397156E1,0E0,0E0,3.7637877E0,0E0,0E0,0E0,0E0,0E0,0E0,0E0,0E0,0E0,0E0,0E0,0E0],"parents":[2147483647,0,0,1,1,2,2,3,3,4,4,5,5,6,6,7,7,8,8,9,9,10,10,11,11,14,14],"right_children":[2,4,6,8,10,12,14,16,18,20,22,24,-1,-1,26,-1,-1,-1,-1,-1,-1,-1,-1,-1,-1,-1,-1],"split_conditions":[5.4010826E-1,4.5544207E-1,-9.321713E1,-1.3865592E-1,2.9451632E-1,8.9967966E-1,2.0817247E-1,6.9999105E-1,1.0004971E-1,4.3901548E-1,-8.269241E-2,9.7099215E-1,-2.0688863E-2,7.126502E-2,7.934387E-1,4.980575E-2,-1.3246852E-2,6.9746203E-3,9.808137E-2,-1.866949E-2,8.7984644E-2,-1.9135056E-2,4.118007E-3,4.1992128E-2,1.5121576E-1,4.216341E-2,-1.5707849E-2],"split_indices":[96,90,29,86,79,93,153,157,158,4,86,159,0,0,175,0,0,0,0,0,0,0,0,0,0,0,0],"split_type":[0,0,0,0,0,0,0,0,0,0,0,0,0,0,0,0,0,0,0,0,0,0,0,0,0,0,0],"sum_hessian":[2.4709935E2,2.0942082E2,3.7678524E1,3.397424E1,1.754466E2,1.8434093E1,1.924443E1,1.5940091E1,1.8034145E1,5.1859865E0,1.702606E2,1.4535325E1,3.8987691E0,1.3829532E0,1.7861477E1,3.4135242E0,1.2526567E1,7.4238977E0,1.0610249E1,2.7597907E0,2.4261956E0,1.4847433E2,2.178627E1,6.2133045E0,8.322021E0,2.3762784E0,1.5485198E1],"tree_param":{"num_deleted":"0","num_feature":"210","num_nodes":"27","size_leaf_vector":"1"}},{"base_weights":[-1.0763016E-3,-1.3568501E-1,7.541513E-1,-3.2536712E-1,6.505751E-2,9.694842E-1,-3.4387305E-1,6.036858E-1,-3.729343E-1,3.1660086E-1,-3.8712987E-1,1.2698023E0,-8.90276E-2,2.7977934E-3,-2.1908045E-2,-2.3250857E-3,8.013753E-2,-1.99349E-2,3.0385701E-2,-1.2943155E-2,2.7883489E-2,-2.2217726E-2,3.6806613E-2,8.025296E-2,-1.4017905E-2,2.8691685E-2,-2.199659E-2],"categories":[],"categories_nodes":[],"categories_segments":[],"categories_sizes":[],"default_left":[0,0,0,0,0,0,0,0,0,0,0,0,0,0,0,0,0,0,0,0,0,0,0,0,0,0,0],"id":43,"left_children":[1,3,5,7,9,11,13,15,17,19,21,23,25,-1,-1,-1,-1,-1,-1,-1,-1,-1,-1,-1,-1,-1,-1],"loss_changes":[2.5756203E1,8.258626E0,9.453018E0,5.120824E0,1.2098347E1,1.0519131E1,3.2446414E-1,3.9331467E0,2.9147167E0,9.661001E0,2.738174E0,1.375679E1,2.1030262E0,0E0,0E0,0E0,0E0,0E0,0E0,0E0,0E0,0E0,0E0,0E0,0E0,0E0,0E0],"parents":[2147483647,0,0,1,1,2,2,3,3,4,4,5,5,6,6,7,7,8,8,9,9,10,10,11,11,12,12],"right_children":[2,4,6,8,10,12,14,16,18,20,22,24,26,-1,-1,-1,-1,-1,-1,-1,-1,-1,-1,-1,-1,-1,-1],"split_conditions":[9.985519E-1,-6.534839E-2,3.144725E-1,4.634726E-1,3.4346455E-1,-2.4072734E-1,6.7022353E-1,-2.5193313E-1,9.979249E-1,3.720305E-1,9.999864E-1,2.5728023E-1,7.7481125E1,2.7977934E-3,-2.1908045E-2,-2.3250857E-3,8.013753E-2,-1.99349E-2,3.0385701E-2,-1.2943155E-2,2.7883489E-2,-2.2217726E-2,3.6806613E-2,8.025296E-2,-1.4017905E-2,2.8691685E-2,-2.199659E-2],"split_indices":[207,44,194,186,208,98,87,2,153,109,33,76,167,0,0,0,0,0,0,0,0,0,0,0,0,0,0],"split_type":[0,0,0,0,0,0,0,0,0,0,0,0,0,0,0,0,0,0,0,0,0,0,0,0,0,0,0],"sum_hessian":[2.519576E2,2.146517E2,3.73059E1,1.1030323E2,1.04348465E2,3.1363382E1,5.942517E0,4.7005982E0,1.0560264E2,6.738464E1,3.6963818E1,2.4349787E1,7.013595E0,1.0091523E0,4.9333644E0,3.3644128E0,1.3361857E0,1.03576866E2,2.0257716E0,1.9750032E1,4.7634613E1,3.58318E1,1.1320193E0,2.0043934E1,4.3058534E0,2.109137E0,4.904458E0],"tree_param":{"num_deleted":"0","num_feature":"210","num_nodes":"27","size_leaf_vector":"1"}},{"base_weights":[2.6218846E-2,-1.2819438E-1,8.9198387E-1,6.741772E-1,-3.3617094E-1,2.2585573E0,-5.5171553E-2,-2.408206E-1,1.4893373E0,-4.4649202E-1,-7.570905E-2,1.2679507E-1,2.9884968E0,-3.7003428E-1,1.5438004E0,2.7990732E-2,-2.5354017E-2,1.0606108E-1,-1.5483412E-2,4.7861673E-3,-2.5478398E-2,5.2958943E-2,-1.0814649E-2,-1.8618835E-2,4.486088E-2,2.2533722E-2,1.6443473E-1,-2.309105E-2,2.9764548E-2,1.1888951E-1,1.6046482E-3],"categories":[],"categories_nodes":[],"categories_segments":[],"categories_sizes":[],"default_left":[0,0,0,0,0,0,0,0,0,0,0,0,0,0,0,0,0,0,0,0,0,0,0,0,0,0,0,0,0,0,0],"id":44,"left_children":[1,3,5,7,9,11,13,15,17,19,21,23,25,27,29,-1,-1,-1,-1,-1,-1,-1,-1,-1,-1,-1,-1,-1,-1,-1,-1],"loss_changes":[3.339199E1,3.5493336E1,4.929007E1,3.3136456E1,4.7632256E0,2.3501282E1,1.2168012E1,4.8467827E0,2.7380608E1,4.1284027E0,8.391187E0,2.326684E0,6.906723E0,2.0600886E0,4.686652E0,0E0,0E0,0E0,0E0,0E0,0E0,0E0,0E0,0E0,0E0,0E0,0E0,0E0,0E0,0E0,0E0],"parents":[2147483647,0,0,1,1,2,2,3,3,4,4,5,5,6,6,7,7,8,8,9,9,10,10,11,11,12,12,13,13,14,14],"right_children":[2,4,6,8,10,12,14,16,18,20,22,24,26,28,30,-1,-1,-1,-1,-1,-1,-1,-1,-1,-1,-1,-1,-1,-1,-1,-1],"split_conditions":[-9.900568E1,4.669724E-1,-9.195353E1,1.3663648E-1,5.1046425E-1,3.18149E-1,2.1866319E-1,-5.453673E-3,5.0172806E-1,9.7081604E1,3.2444814E-1,9.978096E-1,-3.922837E-1,7.960942E-2,-7.19049E1,2.7990732E-2,-2.5354017E-2,1.0606108E-1,-1.5483412E-2,4.7861673E-3,-2.5478398E-2,5.2958943E-2,-1.0814649E-2,-1.8618835E-2,4.486088E-2,2.2533722E-2,1.6443473E-1,-2.309105E-2,2.9764548E-2,1.1888951E-1,1.6046482E-3],"split_indices":[89,90,35,158,96,124,152,164,205,161,109,201,92,142,95,0,0,0,0,0,0,0,0,0,0,0,0,0,0,0,0],"split_type":[0,0,0,0,0,0,0,0,0,0,0,0,0,0,0,0,0,0,0,0,0,0,0,0,0,0,0,0,0,0,0],"sum_hessian":[2.4735341E2,2.105392E2,3.681422E1,4.277834E1,1.6776085E2,1.4546814E1,2.2267405E1,2.0429081E1,2.234926E1,1.1707463E2,5.0686222E1,4.0448055E0,1.0502008E1,1.9298372E1,2.9690328E0,4.729506E0,1.5699574E1,1.6448393E1,5.9008675E0,1.1980916E1,1.0509371E2,4.7880893E0,4.5898132E1,2.6892488E0,1.3555567E0,1.410685E0,9.091324E0,1.8193636E1,1.1047364E0,1.5015689E0,1.467464E0],"tree_param":{"num_deleted":"0","num_feature":"210","num_nodes":"31","size_leaf_vector":"1"}},{"base_weights":[-6.577346E-3,-4.1288587E-1,1.1659074E0,-5.0295395E-1,1.5147141E0,1.702504E0,-1.7701449E-1,-5.3254354E-1,5.41901E-1,2.1385183E0,-1.6617805E-2,2.1794436E0,7.4081343E-1,5.3822365E-2,-3.8375124E-1,6.8964805E-3,-2.693339E-2,-1.9315813E-2,9.5857784E-2,-1.1667567E-2,1.3255893E-1,-1.707345E-2,1.1876378E-1,1.3940862E-1,4.7076955E-3,1.1859248E-2,-2.5083927E-2],"categories":[],"categories_nodes":[],"categories_segments":[],"categories_sizes":[],"default_left":[0,0,0,0,0,0,0,0,0,0,0,0,0,0,0,0,0,0,0,0,0,0,0,0,0,0,0],"id":45,"left_children":[1,3,5,7,9,11,13,15,17,19,-1,21,23,-1,25,-1,-1,-1,-1,-1,-1,-1,-1,-1,-1,-1,-1],"loss_changes":[1.209497E2,3.3424892E1,4.75224E1,5.88649E0,1.082803E1,1.9566956E1,5.397148E0,8.3994293E-1,7.7739573E0,8.912235E0,0E0,1.6176102E1,2.2095892E1,0E0,1.4302063E0,0E0,0E0,0E0,0E0,0E0,0E0,0E0,0E0,0E0,0E0,0E0,0E0],"parents":[2147483647,0,0,1,1,2,2,3,3,4,4,5,5,6,6,7,7,8,8,9,9,11,11,12,12,14,14],"right_children":[2,4,6,8,10,12,14,16,18,20,-1,22,24,-1,26,-1,-1,-1,-1,-1,-1,-1,-1,-1,-1,-1,-1],"split_conditions":[2.8178764E1,-2.1732237E1,1.1557879E-1,-4.4925728E1,3.0103136E-2,-6.656008E1,1.472907E-1,-1.333616E2,9.999877E-1,3.1951204E-1,-1.6617805E-2,9.6646835E1,4.6053782E-1,5.3822365E-2,-1.7778397E2,6.8964805E-3,-2.693339E-2,-1.9315813E-2,9.5857784E-2,-1.1667567E-2,1.3255893E-1,-1.707345E-2,1.1876378E-1,1.3940862E-1,4.7076955E-3,1.1859248E-2,-2.5083927E-2],"split_indices":[209,107,202,125,140,95,82,107,147,13,0,161,198,0,149,0,0,0,0,0,0,0,0,0,0,0,0],"split_type":[0,0,0,0,0,0,0,0,0,0,0,0,0,0,0,0,0,0,0,0,0,0,0,0,0,0,0],"sum_hessian":[2.5203528E2,1.877175E2,6.431779E1,1.8009349E2,7.624006E0,4.5817146E1,1.8500639E1,1.757037E2,4.3897815E0,5.621745E0,2.0022607E0,2.9711712E1,1.6105436E1,1.955249E0,1.654539E1,1.2477938E0,1.7445592E2,3.006768E0,1.3830132E0,1.0613005E0,4.560445E0,2.051303E0,2.7660408E1,3.03384E0,1.3071596E1,2.3439984E0,1.4201391E1],"tree_param":{"num_deleted":"0","num_feature":"210","num_nodes":"27","size_leaf_vector":"1"}},{"base_weights":[-9.392687E-3,5.280381E-1,-2.8538936E-1,1.2271726E0,2.7152798E-1,-4.4208136E-1,9.166656E-2,1.8194385E0,-3.2326716E-1,1.02560155E-1,9.8993295E-1,6.753199E-1,-4.8025173E-1,1.0935919E0,-5.8520943E-2,3.9448388E-2,1.3215189E-1,-2.209655E-2,7.5553837E-3,3.8951587E-2,-2.1795777E-3,1.0240459E-1,-1.4675796E-2,8.803656E-2,-1.6555982E-2,-2.5219647E-2,4.0604677E-2,-8.40005E-3,1.1760831E-1,1.8999673E-2,-1.8818596E-2],"categories":[],"categories_nodes":[],"categories_segments":[],"categories_sizes":[],"default_left":[0,0,0,0,0,0,0,0,0,0,0,0,0,0,0,0,0,0,0,0,0,0,0,0,0,0,0,0,0,0,0],"id":46,"left_children":[1,3,5,7,9,11,13,15,17,19,21,23,25,27,29,-1,-1,-1,-1,-1,-1,-1,-1,-1,-1,-1,-1,-1,-1,-1,-1],"loss_changes":[3.799181E1,1.5091181E1,1.0086064E1,2.1786114E1,7.6700306E0,5.425276E0,7.748795E0,1.1815525E1,4.9768144E-1,5.4254766E0,1.7255587E1,5.4174027E0,4.021572E0,1.1260285E1,6.369774E0,0E0,0E0,0E0,0E0,0E0,0E0,0E0,0E0,0E0,0E0,0E0,0E0,0E0,0E0,0E0,0E0],"parents":[2147483647,0,0,1,1,2,2,3,3,4,4,5,5,6,6,7,7,8,8,9,9,10,10,11,11,12,12,13,13,14,14],"right_children":[2,4,6,8,10,12,14,16,18,20,22,24,26,28,30,-1,-1,-1,-1,-1,-1,-1,-1,-1,-1,-1,-1,-1,-1,-1,-1],"split_conditions":[3.6525282E-1,9.983462E-1,-1.24497235E-1,-1.04993576E2,-1.10098675E-1,9.8722535E-1,2.8779843E-1,9.9997616E-1,8.072685E-1,1.8915966E-1,8.1923836E1,4.9293336E-1,1.1952949E2,-3.4971508E-1,-1.2862143E-1,3.9448388E-2,1.3215189E-1,-2.209655E-2,7.5553837E-3,3.8951587E-2,-2.1795777E-3,1.0240459E-1,-1.4675796E-2,8.803656E-2,-1.6555982E-2,-2.5219647E-2,4.0604677E-2,-8.40005E-3,1.1760831E-1,1.8999673E-2,-1.8818596E-2],"split_indices":[205,9,62,89,8,9,61,141,177,25,167,102,185,116,80,0,0,0,0,0,0,0,0,0,0,0,0,0,0,0,0],"split_type":[0,0,0,0,0,0,0,0,0,0,0,0,0,0,0,0,0,0,0,0,0,0,0,0,0,0,0,0,0,0,0],"sum_hessian":[2.542795E2,8.5844475E1,1.6843503E2,2.1921658E1,6.3922817E1,1.1905319E2,4.9381832E1,1.5783414E1,6.1382437E0,5.2788902E1,1.1133916E1,3.2946045E0,1.1575859E2,5.705282E0,4.3676548E1,7.9348545E0,7.8485594E0,5.1333447E0,1.0048988E0,8.73098E0,4.4057922E1,5.818724E0,5.3151913E0,1.272332E0,2.0222726E0,1.1431033E2,1.4482507E0,3.2422829E0,2.4629996E0,1.814003E1,2.5536518E1],"tree_param":{"num_deleted":"0","num_feature":"210","num_nodes":"31","size_leaf_vector":"1"}},{"base_weights":[-4.365388E-2,-2.7899316E-1,4.5962387E-1,2.2372347E-1,-4.7025442E-1,-8.926404E-2,8.9426774E-1,-3.0540752E-1,8.274213E-1,-2.5641567E-1,-5.178137E-1,-3.6326995E-1,4.1574028E-1,-3.0510393E-1,1.2227288E0,3.8656224E-2,-2.3818702E-2,7.677099E-2,-1.4298597E-2,-2.5148457E-2,8.071326E-3,3.4279244E-3,-2.6345262E-2,-2.3683457E-2,2.9488554E-2,6.7780055E-2,-4.0710354E-3,-2.3469554E-2,1.1175891E-2,1.1353965E-1,2.9167637E-2],"categories":[],"categories_nodes":[],"categories_segments":[],"categories_sizes":[],"default_left":[0,0,0,0,0,0,0,0,0,0,0,0,0,0,0,0,0,0,0,0,0,0,0,0,0,0,0,0,0,0,0],"id":47,"left_children":[1,3,5,7,9,11,13,15,17,19,21,23,25,27,29,-1,-1,-1,-1,-1,-1,-1,-1,-1,-1,-1,-1,-1,-1,-1,-1],"loss_changes":[3.003314E1,1.675436E1,1.9422285E1,1.5697002E1,1.0683327E0,5.194755E0,1.8291355E1,5.191965E0,1.8587822E1,2.715222E0,6.229515E-1,2.8261333E0,6.3925886E0,1.0381856E0,2.2371681E1,0E0,0E0,0E0,0E0,0E0,0E0,0E0,0E0,0E0,0E0,0E0,0E0,0E0,0E0,0E0,0E0],